tree
version=v2
num_class=1
num_tree_per_iteration=1
label_index=0
max_feature_idx=234
objective=regression
feature_names=Column_0 Column_1 Column_2 Column_3 Column_4 Column_5 Column_6 Column_7 Column_8 Column_9 Column_10 Column_11 Column_12 Column_13 Column_14 Column_15 Column_16 Column_17 Column_18 Column_19 Column_20 Column_21 Column_22 Column_23 Column_24 Column_25 Column_26 Column_27 Column_28 Column_29 Column_30 Column_31 Column_32 Column_33 Column_34 Column_35 Column_36 Column_37 Column_38 Column_39 Column_40 Column_41 Column_42 Column_43 Column_44 Column_45 Column_46 Column_47 Column_48 Column_49 Column_50 Column_51 Column_52 Column_53 Column_54 Column_55 Column_56 Column_57 Column_58 Column_59 Column_60 Column_61 Column_62 Column_63 Column_64 Column_65 Column_66 Column_67 Column_68 Column_69 Column_70 Column_71 Column_72 Column_73 Column_74 Column_75 Column_76 Column_77 Column_78 Column_79 Column_80 Column_81 Column_82 Column_83 Column_84 Column_85 Column_86 Column_87 Column_88 Column_89 Column_90 Column_91 Column_92 Column_93 Column_94 Column_95 Column_96 Column_97 Column_98 Column_99 Column_100 Column_101 Column_102 Column_103 Column_104 Column_105 Column_106 Column_107 Column_108 Column_109 Column_110 Column_111 Column_112 Column_113 Column_114 Column_115 Column_116 Column_117 Column_118 Column_119 Column_120 Column_121 Column_122 Column_123 Column_124 Column_125 Column_126 Column_127 Column_128 Column_129 Column_130 Column_131 Column_132 Column_133 Column_134 Column_135 Column_136 Column_137 Column_138 Column_139 Column_140 Column_141 Column_142 Column_143 Column_144 Column_145 Column_146 Column_147 Column_148 Column_149 Column_150 Column_151 Column_152 Column_153 Column_154 Column_155 Column_156 Column_157 Column_158 Column_159 Column_160 Column_161 Column_162 Column_163 Column_164 Column_165 Column_166 Column_167 Column_168 Column_169 Column_170 Column_171 Column_172 Column_173 Column_174 Column_175 Column_176 Column_177 Column_178 Column_179 Column_180 Column_181 Column_182 Column_183 Column_184 Column_185 Column_186 Column_187 Column_188 Column_189 Column_190 Column_191 Column_192 Column_193 Column_194 Column_195 Column_196 Column_197 Column_198 Column_199 Column_200 Column_201 Column_202 Column_203 Column_204 Column_205 Column_206 Column_207 Column_208 Column_209 Column_210 Column_211 Column_212 Column_213 Column_214 Column_215 Column_216 Column_217 Column_218 Column_219 Column_220 Column_221 Column_222 Column_223 Column_224 Column_225 Column_226 Column_227 Column_228 Column_229 Column_230 Column_231 Column_232 Column_233 Column_234
feature_infos=[0:34] [0:113] [0:346] [0:75] [0:132] [0:80] [0:36] [0:101] [0:34] [0:120] [0:182] [0:155] [0:185] [0:174] [0:94] [0:146] [0:237] [0:122] [0:173] [0:45] [0:227] [0:185] [0:268] [0:379] [0:117] [0:114] [0:23] [0:55] [0:110] [0:136] [0:319] [0:113] [0:85] [0:114] [0:46] [0:118] [0:154] [0:225] [0:279] [0:42] [0:231] [0:157] [0:156] [0:38] [0:160] [0:177] [0:160] [0:114] [0:265] [0:38] [0:46] [0:39] [0:41] [0:89] [0:71] [0:48] [0:57] [0:44] [0:234] [0:122] [0:66] [0:159] [0:272] [0:41] [0:244] [0:301] [0:124] [0:90] [0:103] [0:185] [0:155] [0:196] [0:31] [0:43] [0:38] [0:109] [0:184] [0:50] [0:156] [0:152] [0:87] [0:47] [0:166] [0:85] [0:33] [0:21] [0:25] [0:73] [0:155] [0:205] [0:120] [0:182] [0:221] [0:196] [0:71] [0:63] [0:29] [0:103] [0:50] [0:52] [0:263] [0:55] [0:80] [0:175] [0:70] [0:201] [0:263] [0:99] [0:373] [0:186] [0:110] [0:41] [0:172] [0:95] [0:624] [0:93] [0:54] [0:157] [0:58] [0:146] [0:35] [0:29] [0:50] [0:68] [0:39] [0:37] [0:42] [0:63] [0:38] [0:81] [0:100] [0:111] [0:70] [0:274] [0:41] [0:52] [0:68] [0:35] [0:44] [0:10] [0:65] [0:119] [0:121] [0:179] [0:469] [0:150] [0:253] [0:76] [0:367] [0:230] [0:534] [0:39] [0:72] [0:94] [0:109] [0:376] [0:528] [0:115] [0:94] [0:168] [0:155] [0:165] [0:140] [0:249] [0:113] [0:63] [0:149] [0:125] [0:124] [0:31] [0:262] [0:158] [0:52] [0:58] [0:92] [0:207] [0:444] [0:145] [0:122] [0:29] [0:205] [0:113] [0:261] [0:122] [0:327] [0:62] [0:344] [0:64] [0:83] [0:59] [0:60] [0:306] [0:60] [0:358] [0:325] [0:512] [0:173] [0:58] [0:86] [0:40] [0:32] [0:14] [0:55] [0:28] [0:22] [0:1] [0:1] [0:1] [0:1] [0:1] [0:1] [0:1] [0:1] [0:1] [0:1] [0:1] [0:1] [0:0.86184909670563226] [0:0.42898219755035211] [0:0.99165933351187974] [0:0.85505945703387931] [0.0045146726862302479:0.99627329192546588] [0.023668639053254437:0.55189255189255193] [0:1.0452722872838394] [0:62432] [0.23277701091730454:0.57129543336439892] [0.016794625719769675:0.43036191041234056] [0:0.28730754046585077] [0:0.16761363636363635] [0:0.15007720020586721] [0:0.50473746545598108] [0.021487685638396842:0.41521675022117371] [0:0.21191646191646191] [0.32090000000000002:0.62649999999999995] [0:1]
tree_sizes=4386 4426 4411 4412 4405 4438 4396 4412 4371 4397 4408 4385 4389 4378 4386 4374 4417 4397 4398 4390 4405 4395 4370 4402 4415 4430 4377 4382 4377 4390 4388 4395 4384 4404 4372 4372 4368 4402 4398 4364 4375 4393 4402 4403 4383 4402 4382 4352 4391 4392 4436 4385 4380 4376 4376 4372 4368 4374 4383 4377 4393 4378 4408 4355 4382 4359 4378 4403 4381 4384 4379 4399 4405 4387 4407 4395 4379 4356 4384 4395 4373 4383 4372 4370 4411 4400 4381 4380 4366 4367 4380 4367 4373 4372 4393 4402 4408 4361 4371 4349

Tree=0
num_leaves=52
num_cat=0
split_feature=114 182 35 38 58 23 92 92 25 114 25 182 141 182 38 25 144 58 155 70 175 33 112 92 144 65 139 113 9 114 92 182 103 70 112 58 25 176 92 62 58 140 114 148 144 191 212 25 112 58 114
split_gain=1.16372e+14 2.79945e+13 9.47911e+12 4.80062e+12 4.51689e+12 2.92646e+12 2.26398e+12 2.13948e+12 1.78308e+12 1.65301e+12 1.58791e+12 1.45953e+12 1.09382e+12 1.06336e+12 9.20144e+11 9.05079e+11 9.25476e+11 8.85213e+11 8.32447e+11 6.93185e+11 6.81155e+11 5.05928e+11 4.95468e+11 4.89776e+11 4.71287e+11 4.60916e+11 4.41759e+11 4.19299e+11 4.17713e+11 3.98498e+11 3.7701e+11 3.74359e+11 3.45928e+11 3.33298e+11 3.09796e+11 2.95583e+11 2.85982e+11 2.85924e+11 2.68224e+11 2.57385e+11 2.54584e+11 2.44268e+11 2.26488e+11 2.20998e+11 2.1739e+11 2.16302e+11 2.15059e+11 2.14742e+11 2.05736e+11 1.9579e+11 1.82683e+11
threshold=35.500000000000007 2.5000000000000004 1.0000000180025095e-35 10.500000000000002 1.0000000180025095e-35 2.5000000000000004 5.5000000000000009 1.5000000000000002 1.0000000180025095e-35 55.500000000000007 2.5000000000000004 1.0000000180025095e-35 1.0000000180025095e-35 1.0000000180025095e-35 4.5000000000000009 1.0000000180025095e-35 2.5000000000000004 1.0000000180025095e-35 1.0000000180025095e-35 1.0000000180025095e-35 9.5000000000000018 1.0000000180025095e-35 1.5000000000000002 1.5000000000000002 6.5000000000000009 14.500000000000002 1.0000000180025095e-35 1.0000000180025095e-35 1.5000000000000002 9.5000000000000018 2.5000000000000004 17.500000000000004 11.500000000000002 2.5000000000000004 1.0000000180025095e-35 2.5000000000000004 3.5000000000000004 1.0000000180025095e-35 1.5000000000000002 2.5000000000000004 6.5000000000000009 1.0000000180025095e-35 4.5000000000000009 1.0000000180025095e-35 1.5000000000000002 1.0000000180025095e-35 1.0000000180025095e-35 10.500000000000002 1.0000000180025095e-35 1.0000000180025095e-35 8.5000000000000018
decision_type=2 2 2 2 2 2 2 2 2 2 2 2 2 2 2 2 2 2 2 2 2 2 2 2 2 2 2 2 2 2 2 2 2 2 2 2 2 2 2 2 2 2 2 2 2 2 2 2 2 2 2
left_child=1 4 5 -2 8 7 15 17 11 -5 13 12 18 30 25 16 20 44 21 22 27 32 49 -15 34 48 41 35 -11 38 45 -16 37 -25 -19 -4 -7 46 -13 -29 -24 -14 -21 -20 -3 -6 -1 -10 -8 -9 -23
right_child=3 2 6 9 10 36 14 19 47 28 -12 29 26 23 31 -17 -18 24 43 42 -22 50 40 33 -26 -27 -28 39 -30 -31 -32 -33 -34 -35 -36 -37 -38 -39 -40 -41 -42 -43 -44 -45 -46 -47 -48 -49 -50 -51 -52
leaf_value=6037.2448876795825 39082.690338406486 7611.282856056021 9721.4896884093323 49960.841301993583 6953.9189268803784 17747.423505572129 13674.959172755365 8756.2198818902452 12702.049854169352 61224.91314271243 21548.347562096078 7003.2255405636261 8411.9045603054201 8294.3142272035002 19955.378718464322 21628.136780076369 19134.360393887673 8725.4996069486733 6576.8253542080383 13128.494727334055 20263.863403766452 6502.2109849552289 11221.17132257163 9978.9143040707459 15383.06807985126 23156.783307301397 6139.5224284846845 12945.49729483464 69603.976663542038 14076.03719144778 8751.0695009946103 26770.379317201143 12233.931761024905 15820.569733304159 10339.420621286796 12328.912391038111 25725.670351009525 6512.1730720805535 8209.7067094342419 18271.120935060928 14663.953465872 6942.773414998489 18520.457708609832 7495.5317260039737 12067.572773613105 7900.7657157605881 5737.0231953048424 19002.655222012232 17042.071046406552 10455.454651989323 11098.340615967616
leaf_count=474619 441 27361 3388 309 49983 330 1133 4545 598 402 305 45587 12369 17138 756 430 739 15802 85783 2262 357 84539 2560 4929 462 343 7187 1325 588 312 5765 498 331 390 6105 3069 340 40156 8022 451 1155 6336 331 10928 411 10875 108534 302 1665 5612 321
internal_value=0 -425.521 17387.2 258373 -1912.74 12438.3 40909.3 11776.5 -2596.31 289003 4862.33 -2641.56 -2968.66 4615.54 59755.9 32419.7 30349.7 8528.65 -3174.38 21666.8 27426 -3550.03 18860.6 10566.4 13210.4 50601.8 3428.9 25569.3 309039 2400.14 2609.58 82663.3 -3861.75 18949.1 12543.3 21824.2 78180.2 -3878.92 2192.6 39177.9 28742.8 5989.25 36674.6 -422.329 4757.63 1877.39 -4056.65 41882.6 46348.6 15245.2 -1259.21
internal_count=1058479 1056739 81430 1740 975309 67276 14154 66606 885924 1299 89385 885024 831103 89080 4395 9759 9329 50141 805211 16465 8590 708500 13872 22457 22369 3141 25892 8233 990 53921 66623 1254 623640 5319 21907 6457 670 623309 53609 1776 3715 18705 2593 96711 27772 60858 583153 900 2798 10157 84860
shrinkage=1


Tree=1
num_leaves=52
num_cat=0
split_feature=38 182 117 113 23 62 61 62 61 112 119 23 70 23 58 141 58 62 167 38 58 175 58 38 167 103 182 191 182 112 175 167 38 139 88 113 112 149 140 112 78 61 91 88 167 127 103 70 175 155 191
split_gain=3.81366e+13 1.89024e+13 1.65977e+13 7.48916e+12 3.87272e+12 3.15491e+12 2.67922e+12 2.62457e+12 2.44542e+12 1.581e+12 1.28205e+12 1.22865e+12 8.18804e+11 7.71054e+11 7.69521e+11 7.57084e+11 7.33652e+11 6.9468e+11 6.26162e+11 6.06055e+11 5.94795e+11 5.57549e+11 5.44784e+11 5.3399e+11 4.15639e+11 4.11852e+11 3.85902e+11 3.67044e+11 3.58317e+11 3.43741e+11 3.31077e+11 3.09407e+11 3.0136e+11 2.95051e+11 2.59868e+11 2.55509e+11 2.50271e+11 2.43507e+11 2.11146e+11 2.09116e+11 2.08738e+11 2.07861e+11 1.98504e+11 1.79563e+11 1.79225e+11 1.63198e+11 1.62112e+11 1.5194e+11 1.91759e+11 1.47688e+11 1.47349e+11
threshold=18.500000000000004 1.5000000000000002 2.5000000000000004 1.0000000180025095e-35 1.0000000180025095e-35 6.5000000000000009 14.500000000000002 2.5000000000000004 1.0000000180025095e-35 1.0000000180025095e-35 1.0000000180025095e-35 1.0000000180025095e-35 1.0000000180025095e-35 18.500000000000004 6.5000000000000009 1.0000000180025095e-35 1.0000000180025095e-35 1.0000000180025095e-35 1.0000000180025095e-35 6.5000000000000009 1.0000000180025095e-35 1.0000000180025095e-35 2.5000000000000004 4.5000000000000009 1.0000000180025095e-35 7.5000000000000009 9.5000000000000018 1.0000000180025095e-35 25.500000000000004 15.500000000000002 1.0000000180025095e-35 1.0000000180025095e-35 2.5000000000000004 1.0000000180025095e-35 1.0000000180025095e-35 1.0000000180025095e-35 1.5000000000000002 1.0000000180025095e-35 1.0000000180025095e-35 1.0000000180025095e-35 1.5000000000000002 6.5000000000000009 1.0000000180025095e-35 2.5000000000000004 1.0000000180025095e-35 1.0000000180025095e-35 10.500000000000002 5.5000000000000009 1.0000000180025095e-35 1.0000000180025095e-35 3.5000000000000004
decision_type=2 2 2 2 2 2 2 2 2 2 2 2 2 2 2 2 2 2 2 2 2 2 2 2 2 2 2 2 2 2 2 2 2 2 2 2 2 2 2 2 2 2 2 2 2 2 2 2 2 2 2
left_child=1 8 7 4 6 18 9 30 11 17 -4 15 20 -6 31 16 25 22 26 -7 24 40 34 -19 41 27 -5 37 50 44 -2 42 -20 38 49 -14 -22 45 -17 -18 -8 -10 46 -24 -16 -1 -11 48 -28 -3 -23
right_child=2 3 10 5 13 19 21 -9 12 14 -12 -13 35 -15 29 33 39 23 32 -21 36 28 43 -25 -26 -27 47 -29 -30 -31 -32 -33 -34 -35 -36 -37 -38 -39 -40 -41 -42 -43 -44 -45 -46 -47 -48 -49 -50 -51 -52
leaf_value=-653.33624676542604 6090.8208247805742 199.63935801094809 48541.626531643691 4675.3009505271129 8888.9567324827203 15296.205311863258 3569.5384626969858 25767.909410463526 -30.203923903127496 1923.7823178508877 34439.692292242951 8046.641485025325 2533.4601197964298 18562.085743779331 4194.5639311122732 1322.4848202712185 31.586348839312294 2819.474819452741 8600.374461334055 25460.808045705609 872.46654058545198 5475.694561082275 1669.4489624416135 10478.695348716365 4375.6309872349275 3690.6514665664649 5372.7368881276179 12.893323469057332 13443.636287057987 10994.815437893394 12427.064264190689 5792.4487197776671 15758.257218486699 -522.78822952317478 1847.4003592492702 7522.7725928698073 2529.5997408775147 -204.76852432643716 68.236307568380411 1107.6554159188086 6495.1919048875461 658.54210587264527 5395.9609681663824 3668.9959866949066 8249.8647261042897 -112.99387732037813 6314.639286332761 11967.111249804331 10229.490833366983 916.20398875468368 8978.661116544994
leaf_count=604887 1063 28698 556 2703 1085 557 4225 383 97955 16450 428 626 3721 425 4248 13372 40533 3648 509 359 23096 1221 14042 371 841 841 709 38027 351 331 429 901 383 7864 5663 423 3951 52849 7907 8006 1149 19441 665 1886 446 21426 317 355 525 16930 702
internal_value=0 -312.231 115332 12103.9 10101.8 46155.2 9359.22 60114.1 -1754.42 7903.61 220486 -2450.97 1957.66 60368.9 15043.1 -2485.81 -2676 5562.61 36590.5 100249 1562.29 27361.9 4798.98 18333 594.55 -2930.36 31575.1 -2956.3 40488.3 26006.2 41138.4 12037.6 60699.6 2516.84 3212.49 15817.3 5792.76 -3125.58 4451.14 1086.65 21805.1 435.822 11103.2 9907.57 23806.2 -3299.52 10430.6 43943.8 38675.6 2419.46 35112.8
internal_count=1058479 1055620 2859 109854 103754 6100 102244 1875 945766 94596 984 796338 149428 1510 23358 795712 766569 71238 5184 916 145284 7648 67219 4019 118237 718030 4292 717189 2274 5025 1492 18333 892 29143 51291 4144 27047 679162 21279 48539 5374 117396 17432 15928 4694 626313 16767 1589 1234 45628 1923
shrinkage=0.192407


Tree=2
num_leaves=52
num_cat=0
split_feature=38 117 184 35 167 58 61 62 167 23 23 58 62 38 150 70 150 35 23 65 65 117 23 103 184 144 155 61 167 113 30 30 44 217 184 112 144 195 183 58 62 167 38 35 150 150 38 133 61 178 184
split_gain=2.51482e+13 1.45445e+13 1.02244e+13 6.28566e+12 3.07477e+12 1.91546e+12 1.90756e+12 1.89916e+12 1.44254e+12 1.05595e+12 9.64671e+11 9.58526e+11 9.03901e+11 7.11315e+11 7.06413e+11 6.45526e+11 6.17388e+11 5.87603e+11 4.98582e+11 4.82106e+11 4.70309e+11 4.17796e+11 4.14732e+11 4.05048e+11 3.56137e+11 3.33045e+11 3.18201e+11 2.95293e+11 2.85032e+11 2.62875e+11 2.48988e+11 2.48775e+11 2.43321e+11 2.34899e+11 2.08184e+11 2.04657e+11 2.00462e+11 1.98241e+11 1.97748e+11 1.83037e+11 1.79455e+11 1.77108e+11 1.74635e+11 1.67295e+11 1.51304e+11 1.48439e+11 1.47303e+11 1.44209e+11 1.41348e+11 1.39572e+11 1.31058e+11
threshold=14.500000000000002 3.5000000000000004 2.5000000000000004 1.0000000180025095e-35 1.0000000180025095e-35 2.5000000000000004 1.0000000180025095e-35 4.5000000000000009 1.0000000180025095e-35 5.5000000000000009 1.5000000000000002 5.5000000000000009 1.0000000180025095e-35 5.5000000000000009 1.0000000180025095e-35 1.0000000180025095e-35 3.5000000000000004 4.5000000000000009 1.0000000180025095e-35 13.500000000000002 1.0000000180025095e-35 1.0000000180025095e-35 1.0000000180025095e-35 12.500000000000002 1.0000000180025095e-35 1.0000000180025095e-35 1.0000000180025095e-35 17.500000000000004 1.0000000180025095e-35 1.0000000180025095e-35 14.500000000000002 27.500000000000004 6.5000000000000009 0.1658165504394031 1.0000000180025095e-35 1.0000000180025095e-35 2.5000000000000004 7.5000000000000009 1.0000000180025095e-35 2.5000000000000004 9.5000000000000018 1.0000000180025095e-35 1.0000000180025095e-35 8.5000000000000018 23.500000000000004 23.500000000000004 32.500000000000007 1.0000000180025095e-35 1.0000000180025095e-35 4.5000000000000009 1.0000000180025095e-35
decision_type=2 2 2 2 2 2 2 2 2 2 2 2 2 2 2 2 2 2 2 2 2 2 2 2 2 2 2 2 2 2 2 2 2 2 2 2 2 2 2 2 2 2 2 2 2 2 2 2 2 2 2
left_child=2 4 6 5 17 10 14 9 -3 11 15 28 16 29 22 26 30 46 20 25 41 -9 23 24 32 35 -4 45 31 -14 34 37 38 -10 -8 -13 48 49 -1 -16 -23 44 -31 -37 -7 -22 -2 -40 -28 -5 -18
right_child=1 8 3 7 -6 18 12 21 33 -11 -12 19 13 -15 39 -17 50 -19 -20 -21 27 40 -24 -25 -26 -27 36 -29 -30 42 -32 -33 -34 -35 -36 43 -38 -39 47 -41 -42 -43 -44 -45 -46 -47 -48 -49 -50 -51 -52
leaf_value=-590.89484265661486 3577.6442187868611 26135.786795910677 290.23634693791769 2223.2093864399631 21935.805474788012 1488.0345191113649 -139.05392496200855 8497.9447654675278 36772.540029847609 15448.960707031334 8392.4226068817425 3309.9346778323675 1426.8145270870696 9000.726065004561 -29.786844381921473 3364.1820205604531 743.61694152869632 11760.084823831583 9911.3631356078949 13590.104949921417 2828.1743014101753 12400.161718394311 5640.0493966696067 5140.261603670001 -65.884469367025631 10341.018573024887 610.02520616180573 7236.9657087971837 6694.4627773367692 2766.8235465331582 2254.4059395916806 8251.0398089322971 4667.755470018059 44602.10319484114 443.96577900253646 5532.3321384992223 5268.6509398637381 5889.0208863550879 -325.26280932664122 786.13739007638901 18617.458087279458 4653.577559410186 8479.1017322697098 9620.9706010259652 3075.7952268614672 5198.2392181912001 8051.1632629212163 1772.5534236606402 1486.8311605128431 5779.0724615503223 1649.7857891456658
leaf_count=492792 1775 430 64349 7820 515 10767 89031 701 300 315 594 1254 6600 550 90185 3064 15178 475 349 333 3747 396 409 473 66014 559 15119 896 774 492 1857 305 332 307 30421 1808 414 654 104515 11473 310 866 332 467 2800 1325 322 1227 12381 431 9676
internal_value=0 77934.3 -304.586 7898.76 43503.6 5340.87 -1486.71 26403.3 180377 23047.1 3456.29 21793.3 1723.55 12091.1 -2131.49 3205.87 1157.92 29372.1 14052.5 34051.7 13410.7 61500.4 -2506.4 -2525.97 -2546.79 31065.9 2731.61 20877.5 16364.1 9519.06 227.634 14814 -2789.78 211828 48.9867 27468.1 5551.25 13850.8 -2804.8 323.792 78679.3 10322.8 26356.3 33122.7 9437.25 17918.5 22171 -1563.94 5222.22 12521.4 5698.43
internal_count=1058479 4124 1054355 132798 3087 116671 921557 16127 1037 14720 95921 14405 154137 7974 767420 95327 146163 2572 20750 4421 20401 1407 665762 665353 664880 4088 92263 5968 9984 7424 121309 9210 598866 607 119452 3529 27914 8905 598534 101658 706 14433 824 2275 13567 5072 2097 105742 27500 8251 24854
shrinkage=0.192407


Tree=3
num_leaves=52
num_cat=0
split_feature=114 58 25 35 9 114 92 25 92 88 92 37 183 112 64 114 175 174 30 227 112 30 103 175 191 191 150 144 150 130 30 88 112 103 92 92 112 58 58 16 144 30 144 92 78 150 155 175 191 141 150
split_gain=4.4195e+13 6.54841e+12 2.99064e+12 2.82792e+12 2.22061e+12 2.06736e+12 1.83713e+12 1.00294e+12 9.29238e+11 8.9498e+11 7.3652e+11 7.24826e+11 6.53905e+11 5.04331e+11 4.81897e+11 4.72135e+11 3.72745e+11 3.65063e+11 3.36359e+11 3.1299e+11 3.03901e+11 3.01562e+11 2.50853e+11 2.44376e+11 2.43751e+11 2.36665e+11 2.30701e+11 2.19599e+11 1.93867e+11 1.83189e+11 1.75958e+11 1.64372e+11 1.63341e+11 1.59838e+11 1.58925e+11 1.54059e+11 1.49335e+11 1.44787e+11 1.34334e+11 1.31946e+11 1.29871e+11 1.28589e+11 1.27707e+11 1.25977e+11 1.24387e+11 1.22038e+11 1.22026e+11 1.17169e+11 1.15819e+11 1.09552e+11 1.06179e+11
threshold=39.500000000000007 2.5000000000000004 1.0000000180025095e-35 1.0000000180025095e-35 1.0000000180025095e-35 15.500000000000002 1.0000000180025095e-35 1.0000000180025095e-35 13.500000000000002 4.5000000000000009 1.0000000180025095e-35 6.5000000000000009 1.0000000180025095e-35 7.5000000000000009 1.0000000180025095e-35 26.500000000000004 1.0000000180025095e-35 1.0000000180025095e-35 1.0000000180025095e-35 0.053303685316876896 1.0000000180025095e-35 33.500000000000007 12.500000000000002 1.5000000000000002 21.500000000000004 1.0000000180025095e-35 26.500000000000004 1.0000000180025095e-35 2.5000000000000004 1.0000000180025095e-35 17.500000000000004 33.500000000000007 24.500000000000004 11.500000000000002 7.5000000000000009 1.0000000180025095e-35 13.500000000000002 14.500000000000002 35.500000000000007 8.5000000000000018 4.5000000000000009 17.500000000000004 2.5000000000000004 3.5000000000000004 2.5000000000000004 1.0000000180025095e-35 1.0000000180025095e-35 1.5000000000000002 1.0000000180025095e-35 1.0000000180025095e-35 32.500000000000007
decision_type=2 2 2 2 2 2 2 2 2 2 2 2 2 2 2 2 2 2 2 2 2 2 2 2 2 2 2 2 2 2 2 2 2 2 2 2 2 2 2 2 2 2 2 2 2 2 2 2 2 2 2
left_child=1 2 5 7 -2 6 12 10 13 14 26 19 18 21 20 -7 27 43 22 -6 46 24 28 -10 35 29 30 34 48 33 38 -11 -15 39 50 -5 -22 44 -3 40 45 -16 -20 -4 -18 49 -8 -37 -1 -14 -12
right_child=4 3 17 8 11 15 9 -9 23 31 16 -13 25 32 41 -17 37 -19 42 -21 36 -23 -24 -25 -26 -27 -28 -29 -30 -31 -32 -33 -34 -35 -36 47 -38 -39 -40 -41 -42 -43 -44 -45 -46 -47 -48 -49 -50 -51 -52
leaf_value=-472.40841209323582 19363.556671694387 375.07778097806084 4774.2148393991192 1728.0200456360435 35962.792291035657 5485.9532654921377 -23.669328000012207 9271.507512138558 7274.2822261255615 2368.7158150854152 1082.1851520679947 29372.229894488577 -261.15672594198037 6129.8630075466444 1544.3887721033473 14116.869810229684 2843.8566736782273 11510.254784317169 399.00082017248405 43793.785465633897 870.94774382755691 8370.6273261408533 4724.6796583730984 12545.176772505016 8354.1959001347695 500.80627983266481 1857.9525510845838 5435.0921572367015 -5.1096329084191732 1503.4277647861156 3785.1272535151452 5620.1785917437328 11046.537011926268 4145.671849386732 3172.9033884251726 2961.8055944491148 3884.9779201800561 6310.4841710798401 4353.8121835194934 2452.4197460570344 3483.3359149081657 4863.7058965783826 3819.6083334703444 9002.3930624922777 6845.4852290332519 159.64712268824618 496.23334642802615 5248.0057963265444 -60.975452600221409 259.18366152333073 2731.8541172298537
leaf_count=543797 389 31016 1385 2847 444 779 64294 570 851 5965 10260 401 152121 1243 8842 336 2554 495 14856 358 17627 417 350 530 308 27820 5210 569 38127 2619 584 637 314 325 1987 3239 630 742 317 734 367 454 415 322 324 41145 22583 1117 26567 16615 1681
internal_value=0 -250.463 -896.399 9341.72 166471 -978.45 -1027.08 6468.21 24101 2622.21 6037.44 187721 -1537.19 20570.8 1969.01 42049.7 11264.4 35912.5 -2078.04 205174 1358.78 17337.9 -2194.31 48334.8 15883 -140.865 3486.75 8997.34 -2209.71 -497.674 2479.55 13943 37024.6 -600.702 8210.17 14703.4 5067.53 20341.3 2158.87 -634.855 -681.592 8870.17 2557.33 28967.6 17126 -714.472 579.379 18442.4 -2355.65 -1091.02 6831.83
internal_count=1058479 1056887 990207 66680 1592 988005 986890 55814 10866 121032 55244 1203 865858 9485 114430 1115 18117 2202 624112 802 105134 7928 608841 1381 7511 241746 37127 14497 608491 213926 31917 6602 1557 211307 13928 7203 18257 3620 31333 210982 210248 9296 15271 1707 2878 209881 86877 4356 570364 168736 11941
shrinkage=0.192407


Tree=4
num_leaves=52
num_cat=0
split_feature=114 182 182 35 9 114 182 148 64 175 70 175 176 112 2 218 88 64 195 44 44 38 141 195 144 78 144 175 148 212 191 114 176 213 211 2 195 195 195 88 103 70 35 224 36 147 195 83 112 83 70
split_gain=2.88371e+13 6.38913e+12 1.68039e+12 1.51774e+12 1.44892e+12 7.91946e+11 6.9128e+11 6.54426e+11 5.87231e+11 5.16059e+11 5.21022e+11 4.90756e+11 4.00853e+11 3.73964e+11 3.50984e+11 3.35625e+11 2.77123e+11 2.63856e+11 2.31577e+11 2.23132e+11 2.1565e+11 2.06219e+11 2.04218e+11 1.84316e+11 1.78508e+11 1.77484e+11 1.61308e+11 1.50856e+11 1.49869e+11 1.43498e+11 1.36708e+11 1.30701e+11 1.2927e+11 1.23765e+11 1.45355e+11 1.22066e+11 1.17871e+11 1.146e+11 1.13641e+11 1.13369e+11 1.10977e+11 1.12747e+11 1.10896e+11 9.94094e+10 9.41533e+10 9.2188e+10 8.6982e+10 8.5725e+10 8.56084e+10 8.23282e+10 8.05881e+10
threshold=39.500000000000007 4.5000000000000009 1.0000000180025095e-35 1.5000000000000002 1.0000000180025095e-35 19.500000000000004 11.500000000000002 1.0000000180025095e-35 1.0000000180025095e-35 15.500000000000002 25.500000000000004 1.0000000180025095e-35 1.0000000180025095e-35 2.5000000000000004 2.5000000000000004 0.027228214533655593 1.0000000180025095e-35 1.0000000180025095e-35 9.5000000000000018 13.500000000000002 12.500000000000002 1.0000000180025095e-35 1.0000000180025095e-35 1.0000000180025095e-35 1.0000000180025095e-35 1.5000000000000002 1.0000000180025095e-35 1.0000000180025095e-35 1.0000000180025095e-35 1.0000000180025095e-35 7.5000000000000009 9.5000000000000018 2.5000000000000004 1.0000000180025095e-35 1.0000000180025095e-35 1.0000000180025095e-35 2.5000000000000004 19.500000000000004 5.5000000000000009 34.500000000000007 7.5000000000000009 1.5000000000000002 5.5000000000000009 30566.500000000004 3.5000000000000004 16.500000000000004 6.5000000000000009 1.0000000180025095e-35 2.5000000000000004 1.5000000000000002 1.0000000180025095e-35
decision_type=2 2 2 2 2 2 2 2 2 2 2 2 2 2 2 2 2 2 2 2 2 2 2 2 2 2 2 2 2 2 2 2 2 2 2 2 2 2 2 2 2 2 2 2 2 2 2 2 2 2 2
left_child=1 2 7 8 -2 11 15 12 13 10 14 16 17 26 18 -6 20 19 32 22 24 38 23 29 28 49 30 -16 40 31 45 33 -5 34 44 -15 50 -25 -13 -18 41 46 -23 -34 -1 47 -4 -3 -27 -10 -14
right_child=4 3 5 9 6 -7 -8 -9 25 -11 -12 21 36 35 27 -17 39 -19 -20 -21 -22 42 -24 37 -26 48 -28 -29 -30 -31 -32 -33 43 -35 -36 -37 -38 -39 -40 -41 -42 -43 -44 -45 -46 -47 -48 -49 -50 -51 -52
leaf_value=-248.44359845272851 15641.418563095227 706.34059695721112 31.29709105159592 2201.601849874829 36489.229701039789 10411.027034595743 23353.757783561923 605.5030904592594 2388.1213797317305 11885.058317304733 10421.943911110777 1125.5738337383877 101.91152584272304 2449.7814532887351 4980.4189807171369 28058.863229171107 1210.5383407902048 697.89463246832008 6457.5914445053741 4899.6235370669738 5422.2155867579804 2731.4307148128064 253.68308088711075 119.31677509399829 2629.8397190147207 3949.119249971528 3336.3477480646416 9944.362303660324 809.45970346643617 -544.99548136810904 2403.650072031644 3031.8685292785899 3524.2599157866284 -524.13008177359734 -569.89742362169829 5398.408603894989 1508.1987568094803 3285.9782316881833 3759.528318170705 4978.2335963310334 3530.9178286832653 2089.876013916647 6452.4004908279203 7322.9097947448818 2845.7004644956346 3366.9681209006894 1992.2372293111985 2633.6453145119481 6922.1635413192162 5441.3235135905934 2661.2778614466561
leaf_count=460853 389 26990 64887 3970 418 302 468 33199 5638 328 455 9604 71713 4424 498 317 10382 9590 732 303 300 2110 22350 24988 1157 1437 1064 418 13447 121589 2156 431 1618 92029 57711 589 2331 430 647 304 348 1025 345 303 364 514 848 882 479 347 458
internal_value=0 -202.203 -766.257 10515.3 134471 3005.11 151636 -1210.03 8198.03 22910.8 21313.6 2858.49 -1377.23 6510.91 19328.3 170832 2059.61 -1586.18 16789 -1650.19 1435.47 8686.62 -1660.73 -1748.52 1337.15 16016.7 5238.09 37673.9 1159.98 -1840.33 4816.28 -1643.01 14702.8 -1655.29 -1465.75 14534.8 840.223 898.795 6714.65 6849.49 549.398 456.501 16918.4 21437.4 -1278.53 4233.1 294.193 3988.22 24393.9 13333.5 614.15
internal_count=1058479 1056887 1004045 52842 1592 105706 1203 898339 44520 8322 7994 105404 865140 36619 7539 735 92698 790638 6623 781048 82012 12706 780745 758395 81712 7901 31606 916 80555 732977 30542 611388 5891 610957 518928 5013 74502 25418 10251 10686 67108 66760 2455 1921 461217 28386 65735 27872 1916 5985 72171
shrinkage=0.192407


Tree=5
num_leaves=52
num_cat=0
split_feature=114 182 114 184 23 184 9 38 88 25 25 2 37 191 144 148 61 44 148 90 25 25 233 141 144 103 23 175 92 175 78 88 64 78 175 130 44 44 175 23 119 194 184 191 130 216 58 127 193 182 119
split_gain=1.91382e+13 4.17935e+12 1.78979e+12 1.72999e+12 1.62541e+12 1.43705e+12 6.83354e+11 6.22916e+11 5.99725e+11 5.44407e+11 4.9397e+11 3.84538e+11 3.82614e+11 3.62424e+11 3.24439e+11 2.55339e+11 2.47932e+11 2.02479e+11 1.98432e+11 1.97343e+11 1.97166e+11 1.88864e+11 1.77771e+11 1.71481e+11 1.65541e+11 1.63207e+11 1.62053e+11 1.55413e+11 1.52474e+11 1.34629e+11 1.31441e+11 1.27916e+11 1.13754e+11 1.06963e+11 1.05401e+11 1.01865e+11 1.01612e+11 9.33134e+10 9.07749e+10 8.98266e+10 8.8652e+10 8.5671e+10 8.54652e+10 8.44409e+10 7.96833e+10 7.97578e+10 7.66597e+10 7.72565e+10 7.53146e+10 7.34937e+10 7.2507e+10
threshold=45.500000000000007 4.5000000000000009 23.500000000000004 6.5000000000000009 1.0000000180025095e-35 1.0000000180025095e-35 1.0000000180025095e-35 1.0000000180025095e-35 1.5000000000000002 1.0000000180025095e-35 3.5000000000000004 1.5000000000000002 2.5000000000000004 6.5000000000000009 2.5000000000000004 1.0000000180025095e-35 32.500000000000007 12.500000000000002 1.0000000180025095e-35 1.0000000180025095e-35 1.0000000180025095e-35 1.0000000180025095e-35 0.44015000000000004 1.5000000000000002 1.0000000180025095e-35 5.5000000000000009 1.0000000180025095e-35 1.0000000180025095e-35 2.5000000000000004 1.0000000180025095e-35 1.0000000180025095e-35 33.500000000000007 1.0000000180025095e-35 1.0000000180025095e-35 1.0000000180025095e-35 1.5000000000000002 9.5000000000000018 5.5000000000000009 1.0000000180025095e-35 5.5000000000000009 1.0000000180025095e-35 4.5000000000000009 1.0000000180025095e-35 7.5000000000000009 1.0000000180025095e-35 1.0000000180025095e-35 25.500000000000004 1.0000000180025095e-35 10.500000000000002 18.500000000000004 5.5000000000000009
decision_type=2 2 2 2 2 2 2 2 2 2 2 2 2 2 2 2 2 2 2 2 2 2 2 2 2 2 2 2 2 2 2 2 2 2 2 2 2 2 2 2 2 2 2 2 2 2 2 2 2 2 2
left_child=1 2 4 9 5 17 -2 19 13 14 39 16 -8 15 28 20 21 18 23 26 24 30 -13 25 27 32 33 35 37 -24 -9 34 40 -5 -10 36 41 42 -15 -6 44 46 -3 -35 45 -1 47 48 -7 -21 -17
right_child=6 3 -4 7 10 8 12 11 31 -11 -12 22 -14 38 -16 50 -18 -19 -20 49 -22 -23 29 -25 -26 -27 -28 -29 -30 -31 -32 -33 -34 43 -36 -37 -38 -39 -40 -41 -42 -43 -44 -45 -46 -47 -48 -49 -50 -51 -52
leaf_value=-326.37935539286752 14571.697535822495 205.86401756362423 13730.772890777745 1481.9117755206373 2669.8816164868313 -70.214503096711084 28537.371364413069 2361.8804540080382 1183.306029069862 7250.9870338716773 11339.810424519099 4408.4280798328755 21262.824495523597 1165.7698019966417 4191.1896184401821 720.95007114363989 9278.7441258221261 4540.8989298815077 264.38977221773598 3817.1121030045069 3451.6137383070331 8006.8277969246838 7222.3103019988557 1184.6823046311467 2291.0090335756959 2027.3747996512202 6432.8680827044291 650.89404204512869 1596.2250126004956 12420.648229624549 4665.6278379863197 4449.8316292447498 416.94850257272526 2467.40878252007 2712.3720605924309 1794.669878986791 3174.3410147937143 3936.6901197698639 2803.3225590577608 6273.2999164615649 -11.132939253077675 1949.0459486671812 861.71796216424866 5411.479925735066 830.91574389480456 54.815161696706035 2974.9820384517102 399.30627584582061 2718.5015325699619 7167.5627181127056 2542.1930320221786
leaf_count=672504 328 14233 345 5608 775 151501 503 2010 10922 500 456 303 591 6424 1053 20633 334 325 25830 944 644 364 355 2955 1245 1129 308 15375 6686 389 1688 536 8393 1871 1970 1178 372 303 1557 383 38479 824 15223 447 2254 20953 316 14632 359 327 842
internal_value=0 -155.565 -612.161 8503.64 -636.926 -687.999 115919 17617.2 1510.26 4918.32 31068.2 26147.8 127937 1106.95 4481.03 853.106 22042.4 -1340.32 -1350.82 12731.4 477.005 19885.4 43371.1 -1445.09 416.445 -1475.3 10940.2 338.907 3980.92 51687.7 17742.7 7994.54 -1493.57 10064.6 7364.74 62.2671 -2.71839 3011.33 7719.83 20078.8 -1535.41 -39.3724 2831.59 15778.6 -1617.13 -1636.43 -89.6286 -119.18 -330.628 24328.3 4118.35
internal_count=1058479 1057057 1004111 52946 1003766 1002152 1422 14948 229330 37998 1614 5443 1094 215902 37498 207921 4396 772822 772497 9505 186446 4062 1047 746667 185802 743712 8234 184557 36445 744 3698 13428 742583 7926 12892 169182 168004 29759 7981 1158 734190 167632 29456 2318 695711 693457 166808 166492 151860 1271 21475
shrinkage=0.192407


Tree=6
num_leaves=52
num_cat=0
split_feature=62 184 167 195 117 23 23 117 30 167 150 97 44 175 171 117 117 62 41 150 30 103 62 133 195 144 171 202 178 69 36 195 184 178 150 41 16 186 219 108 60 139 155 70 112 150 92 139 37 23 88
split_gain=4.96989e+12 2.45647e+12 2.328e+12 1.13666e+12 1.07533e+12 9.00033e+11 8.37227e+11 8.12714e+11 7.47123e+11 7.20477e+11 4.63331e+11 4.26573e+11 3.09347e+11 2.83055e+11 2.80253e+11 2.72707e+11 2.10368e+11 2.08822e+11 2.05018e+11 2.03849e+11 2.00703e+11 1.98942e+11 1.80909e+11 1.64412e+11 1.5924e+11 1.53443e+11 1.47929e+11 1.46978e+11 1.37281e+11 1.31858e+11 1.28606e+11 1.24591e+11 1.24277e+11 1.20072e+11 1.16601e+11 1.12185e+11 1.07355e+11 1.03467e+11 1.13937e+11 1.0302e+11 1.01729e+11 9.80586e+10 9.68215e+10 9.54378e+10 9.02921e+10 8.92782e+10 7.94217e+10 7.37065e+10 7.16537e+10 7.07611e+10 6.79303e+10
threshold=6.5000000000000009 4.5000000000000009 1.5000000000000002 5.5000000000000009 11.500000000000002 5.5000000000000009 6.5000000000000009 2.5000000000000004 1.0000000180025095e-35 1.0000000180025095e-35 1.5000000000000002 1.0000000180025095e-35 14.500000000000002 1.5000000000000002 1.5000000000000002 1.0000000180025095e-35 6.5000000000000009 1.5000000000000002 1.0000000180025095e-35 44.500000000000007 14.500000000000002 18.500000000000004 1.5000000000000002 1.0000000180025095e-35 1.0000000180025095e-35 1.0000000180025095e-35 1.0000000180025095e-35 1.0000000180025095e-35 5.5000000000000009 1.0000000180025095e-35 7.5000000000000009 31.500000000000004 1.0000000180025095e-35 3.5000000000000004 18.500000000000004 9.5000000000000018 11.500000000000002 1.5000000000000002 0.086192245491037323 3.5000000000000004 1.5000000000000002 1.0000000180025095e-35 1.0000000180025095e-35 1.0000000180025095e-35 1.0000000180025095e-35 32.500000000000007 2.5000000000000004 1.0000000180025095e-35 18.500000000000004 23.500000000000004 2.5000000000000004
decision_type=2 2 2 2 2 2 2 2 2 2 2 2 2 2 2 2 2 2 2 2 2 2 2 2 2 2 2 2 2 2 2 2 2 2 2 2 2 2 2 2 2 2 2 2 2 2 2 2 2 2 2
left_child=1 4 7 6 5 8 9 13 10 11 12 27 21 -2 29 25 -4 -17 26 32 -9 23 33 24 30 42 -13 34 37 -5 35 -26 -12 -11 43 36 40 -16 -39 -20 44 -25 -10 47 48 -28 -34 -3 -1 -8 -44
right_child=2 3 16 14 -6 -7 49 20 15 22 19 18 -14 -15 28 17 -18 -19 39 -21 -22 -23 -24 41 31 -27 45 -29 -30 -31 -32 -33 46 -35 -36 -37 -38 38 -40 -41 -42 -43 50 -45 -46 -47 -48 -49 -50 -51 -52
leaf_value=-262.8791972187289 1779.9275762799734 244.70670782265444 13355.411701581435 2050.4132105185195 9506.6597209343199 7972.5697146399643 5696.8784046522214 7137.8092297786106 236.75276436553105 2436.6467610579625 -0.95345718240063659 972.08135478399447 5295.5571040383511 8095.2403700698169 2851.9838481094198 1681.2592935637188 19558.973404561108 5917.6694599827651 2829.1874899203431 1265.4132252841262 13931.782455163122 4215.3061701894194 6867.6564169979092 855.83306091735938 152.47954267314782 2305.1319507971916 2027.8531961998692 2540.0559199655272 9547.630426628888 4404.161195945293 3587.3941065869321 3988.6141180631535 318.63028848875632 6302.4374612400106 1352.4406107249893 3316.9232575413225 3176.1206179955143 4255.0482492281853 9233.652883211098 6941.6180902140395 1183.5828594501561 -648.03263136902535 740.26641181165837 1510.3822725648229 19.953298845355405 5006.5207702820198 1138.7967382467987 -571.62958295567887 2665.9661629374982 9715.4697383277162 2210.4974256206069
leaf_count=721266 1924 42133 516 2649 430 509 336 339 23778 2279 73955 12995 378 304 493 1887 339 558 875 6336 309 376 521 8158 33733 1771 2871 1107 308 1321 325 316 32211 342 3627 328 340 378 311 304 1849 1998 12654 2038 44776 428 5057 4535 309 318 1281
internal_value=0 -128.465 36431.5 5192.45 -566.165 -588.244 4174.45 22806 -610.229 3859.75 -796.058 3203.14 -1064.02 13735.6 19120.4 3519.09 82234.3 13766.9 7492.35 1059.73 53967 -1077.32 18677 -1087.95 -1138.51 2884.38 6570.62 1800.67 30814.7 14728.9 -1232.18 977.742 745.428 15289.9 1559.42 -1240.59 -1248.49 25900 33813.9 20224.8 -1256.36 2910.3 2457.12 1152.06 -1274.23 12550.5 2234.48 859.502 -1359.74 39786.8 4550.11
internal_count=1058479 1054748 3731 80169 974579 974149 74709 2876 973640 74055 931711 70913 814152 2228 5460 41929 855 2445 17473 117559 648 813774 3142 813398 803242 39484 16294 53440 1490 3970 769193 34049 111223 2621 52333 768868 768540 1182 689 1179 768200 10156 37713 48706 766351 3299 37268 46668 721575 654 13935
shrinkage=0.192407


Tree=7
num_leaves=52
num_cat=0
split_feature=114 182 25 114 217 92 92 30 70 25 61 176 149 195 178 58 78 144 25 127 92 148 144 195 103 58 195 115 76 109 220 38 212 70 97 148 69 156 30 92 186 115 182 175 213 211 103 70 70 231 119
split_gain=9.81401e+12 1.98347e+12 1.11241e+12 1.04392e+12 6.4292e+11 6.30045e+11 5.98711e+11 3.25449e+11 3.08822e+11 3.06428e+11 2.73117e+11 2.61914e+11 2.53292e+11 2.24703e+11 2.17635e+11 1.88471e+11 1.69359e+11 1.68085e+11 1.6591e+11 1.60494e+11 1.49178e+11 1.38095e+11 1.25024e+11 1.23178e+11 1.16164e+11 1.14541e+11 9.51691e+10 9.45091e+10 9.02638e+10 8.90477e+10 8.62072e+10 8.26136e+10 7.9324e+10 7.79186e+10 7.58769e+10 7.51365e+10 7.29397e+10 7.14213e+10 6.85216e+10 6.69023e+10 6.55046e+10 6.47128e+10 6.45912e+10 6.39511e+10 6.37731e+10 7.23922e+10 5.56169e+10 5.22761e+10 4.86008e+10 4.67955e+10 4.63942e+10
threshold=45.500000000000007 6.5000000000000009 2.5000000000000004 25.500000000000004 0.094412216454782108 2.5000000000000004 1.0000000180025095e-35 50.500000000000007 1.5000000000000002 8.5000000000000018 12.500000000000002 11.500000000000002 1.0000000180025095e-35 7.5000000000000009 7.5000000000000009 20.500000000000004 1.0000000180025095e-35 20.500000000000004 1.0000000180025095e-35 1.0000000180025095e-35 1.0000000180025095e-35 1.0000000180025095e-35 5.5000000000000009 15.500000000000002 13.500000000000002 14.500000000000002 8.5000000000000018 1.0000000180025095e-35 1.0000000180025095e-35 1.0000000180025095e-35 0.0038285549883673429 1.0000000180025095e-35 1.0000000180025095e-35 5.5000000000000009 8.5000000000000018 1.5000000000000002 1.0000000180025095e-35 1.0000000180025095e-35 7.5000000000000009 4.5000000000000009 5.5000000000000009 1.0000000180025095e-35 12.500000000000002 4.5000000000000009 1.0000000180025095e-35 1.0000000180025095e-35 6.5000000000000009 10.500000000000002 6.5000000000000009 0.16945556663934241 1.0000000180025095e-35
decision_type=2 2 2 2 2 2 2 2 2 2 2 2 2 2 2 2 2 2 2 2 2 2 2 2 2 2 2 2 2 2 2 2 2 2 2 2 2 2 2 2 2 2 2 2 2 2 2 2 2 2 2
left_child=1 2 3 6 -2 14 12 9 13 11 -6 16 19 15 17 21 34 18 25 22 -4 29 23 24 28 38 33 35 32 39 -22 -10 36 37 -7 -14 44 -18 48 46 -15 -27 -16 -13 45 49 50 -33 -3 -1 -8
right_child=4 5 20 -5 10 7 8 -9 31 -11 -12 43 27 40 42 -17 26 -19 -20 -21 30 -23 -24 -25 -26 41 -28 -29 -30 -31 -32 47 -34 -35 -36 -37 -38 -39 -40 -41 -42 -43 -44 -45 -46 -47 -48 -49 -50 -51 -52
leaf_value=-162.32442508969524 10928.029094765538 306.47209640526893 3257.4307662478827 10436.126800322338 22169.030859668575 1072.9330282628466 -17.785441476820555 8550.708152592475 1387.9229596755549 8291.2265219205601 15133.885992678677 3902.175902869561 16.513213165649272 1643.4079204921129 2453.3767025571287 3101.0515153007473 1417.0687078764483 4611.7427269113659 3972.4803641071871 231.6653397118265 8996.0741577344488 747.30916676000606 2626.9214734295824 2339.6295587369909 2835.1045245591781 1343.2554468154997 5102.1784599038838 783.18761967511398 676.07307082192767 2102.8773367086173 4820.751625282076 2367.641175828609 -351.68166367606221 4116.227677881323 3843.7267916354162 483.2328044414715 211.46708850038223 3803.4747104009139 1335.081414559216 479.76711872086378 4203.5899637471175 3725.4577474015182 6433.1765364128541 7504.0174038752921 -342.30917814213132 -372.25386446872 2598.1859164474008 5070.7361640022018 2737.8056763496488 30.541238739754977 392.19614252351897
leaf_count=409372 566 18845 742 349 506 5252 79963 327 3052 316 350 364 83069 1502 302 832 1975 412 559 33962 408 14793 580 707 466 2074 615 7822 4304 832 335 787 118779 836 393 15089 17126 607 2997 15146 491 530 303 369 88306 55877 314 400 309 52552 11715
internal_value=0 -111.285 -373.577 -413.47 83009.3 7042.62 -432.23 13378.5 1573.61 12430.1 100310 11497.9 -725.483 1290.24 4382.62 1120.36 10116.7 3941.55 3615.25 -922.091 26972.7 1018.67 -1018.62 -1030.01 -1042.5 3230.36 15065.8 725.296 -1052.36 626.083 36988.6 9968.1 -1078.85 13002.6 6580.17 458.712 -936.107 10283.1 2492.75 546.034 11822.9 9503.66 23124.3 29719.5 -993.613 -859.657 225.386 17046.3 1796.96 -729.611 179.853
internal_count=1058479 1057057 1019672 1018187 1422 37385 1017838 11054 129827 10727 856 10411 888011 125588 26331 123595 9678 25726 25314 782031 1485 122763 748069 747489 746782 24755 4033 105980 746316 107970 743 4239 742012 3418 5645 98158 623233 2582 22151 107138 1993 2604 605 733 606107 517801 91992 1187 19154 461924 91678
shrinkage=0.192407


Tree=8
num_leaves=52
num_cat=0
split_feature=167 62 35 41 184 62 23 176 23 150 9 117 70 78 191 76 194 117 62 41 88 176 115 178 117 150 103 117 33 193 58 23 150 133 222 23 36 195 16 70 76 193 186 35 41 191 103 169 76 103 199
split_gain=2.33999e+12 1.69897e+12 1.07026e+12 9.6026e+11 5.88358e+11 4.11927e+11 4.07677e+11 3.9125e+11 3.90217e+11 3.46626e+11 3.16017e+11 2.74239e+11 2.50716e+11 2.32392e+11 2.16659e+11 1.88861e+11 1.8241e+11 1.75188e+11 1.60646e+11 1.49939e+11 1.45453e+11 1.2997e+11 1.2558e+11 1.09823e+11 1.04253e+11 9.77475e+10 8.62767e+10 8.3394e+10 8.2811e+10 8.0094e+10 7.85144e+10 7.68052e+10 7.58153e+10 7.4289e+10 7.24203e+10 6.90342e+10 6.8269e+10 6.79481e+10 6.61524e+10 6.48913e+10 6.38232e+10 6.31348e+10 6.05797e+10 5.93124e+10 5.51128e+10 5.26506e+10 5.2545e+10 5.21403e+10 5.20829e+10 5.11322e+10 5.10769e+10
threshold=1.0000000180025095e-35 2.5000000000000004 1.0000000180025095e-35 3.5000000000000004 1.0000000180025095e-35 5.5000000000000009 1.0000000180025095e-35 25.500000000000004 1.5000000000000002 34.500000000000007 2.5000000000000004 2.5000000000000004 1.0000000180025095e-35 3.5000000000000004 9.5000000000000018 3.5000000000000004 8.5000000000000018 2.5000000000000004 11.500000000000002 5.5000000000000009 28.500000000000004 1.0000000180025095e-35 2.5000000000000004 6.5000000000000009 1.5000000000000002 9.5000000000000018 15.500000000000002 1.0000000180025095e-35 1.0000000180025095e-35 5.5000000000000009 32.500000000000007 1.0000000180025095e-35 77.500000000000014 1.0000000180025095e-35 0.24595110636935105 18.500000000000004 2.5000000000000004 12.500000000000002 1.0000000180025095e-35 1.0000000180025095e-35 1.0000000180025095e-35 1.0000000180025095e-35 1.0000000180025095e-35 4.5000000000000009 7.5000000000000009 1.0000000180025095e-35 7.5000000000000009 1.0000000180025095e-35 1.0000000180025095e-35 1.5000000000000002 1.0000000180025095e-35
decision_type=2 2 2 2 2 2 2 2 2 2 2 2 2 2 2 2 2 2 2 2 2 2 2 2 2 2 2 2 2 2 2 2 2 2 2 2 2 2 2 2 2 2 2 2 2 2 2 2 2 2 2
left_child=2 13 4 10 25 6 7 15 9 12 18 43 14 17 21 16 19 22 27 20 23 30 -2 47 -14 26 31 -3 -8 -16 36 33 50 39 -15 -10 38 -23 40 42 41 46 44 -7 48 -24 -6 49 -1 -4 -11
right_child=1 3 5 -5 8 11 28 -9 35 32 -12 -13 24 34 29 -17 -18 -19 -20 -21 -22 37 45 -25 -26 -27 -28 -29 -30 -31 -32 -33 -34 -35 -36 -37 -38 -39 -40 -41 -42 -43 -44 -45 -46 -47 -48 -49 -50 -51 -52
leaf_value=-186.62750454953138 1000.5635239319799 1317.7720458815825 262.8488979792449 17977.466239182268 -58.25561593937514 1171.0336122582812 7758.3012416363536 7450.0678979619261 2869.5170009105464 1093.4965797723034 11299.074271321164 8232.5765113838206 1178.1114947467149 3096.380573860733 1112.0519774764468 3615.9490525779311 3550.2344713021348 5525.3804275998054 8260.1914929791601 4438.1563362382121 3354.8672265334608 361.5074880131786 2121.7027643372367 2817.8678499546286 4502.4589459501804 201.57363035980953 3075.2170934686355 5198.2884978059546 3376.2432547330332 4311.067421861022 3115.3701149744015 2524.8659860285006 2960.6404575548254 978.45100950697451 6629.0012549818894 6272.9217116588652 1947.2223814295494 3165.6466129992509 823.23805087507731 865.3848712382661 757.1454251312432 983.50362504210329 38.905964111823693 4147.485790200376 2310.1237912909014 5527.0390958694798 2404.4073376196061 1226.5356530059407 615.82856399469915 2312.899253722821 3501.646892590275
leaf_count=690465 7288 422 23114 308 165608 563 342 325 781 5863 343 442 5418 465 5358 822 785 368 325 367 656 41948 354 709 373 29036 305 399 301 306 300 394 1100 2112 401 308 665 322 3495 2259 3803 2202 49233 443 328 321 321 2502 3007 459 345
internal_value=0 14513.3 -151.931 42633.3 -330.875 5557.91 4772.39 4233.54 1042.97 956.329 32104.4 22034.3 741 9017.43 573.287 3852.01 3422.22 7396.03 24120.5 2997.7 2728.98 415.113 6409.41 2368.53 7237.29 -752.53 -822.4 16658.3 29677.2 6679.32 37.7068 -829.262 7736.36 -836.624 24605.6 19926 10.1525 1990.03 -28.1935 -853.408 -115.75 -207.386 -869.679 12903.8 -945.741 19455 -277.983 2034.51 -951.874 1573.75 6379.83
internal_count=1058479 10994 1047485 1797 1015655 31830 30382 29739 238516 237427 1489 1448 230119 9197 224328 29414 28592 8331 1146 27807 27440 218664 7963 26784 5791 777139 748103 821 643 5664 176394 747798 7308 747404 866 1089 176094 42270 175429 745292 171934 168131 743033 1006 693800 675 165929 26075 693472 23573 6208
shrinkage=0.192407


Tree=9
num_leaves=52
num_cat=0
split_feature=62 41 25 167 191 67 176 44 23 64 195 36 142 30 155 182 16 178 150 150 112 103 76 30 70 134 123 154 155 16 178 30 147 92 148 65 2 169 176 150 174 91 68 24 230 76 178 82 221 212 213
split_gain=1.65705e+12 1.51425e+12 1.04105e+12 6.59256e+11 5.9049e+11 4.0162e+11 3.49623e+11 2.88353e+11 2.80485e+11 2.63175e+11 2.56563e+11 2.24271e+11 2.10258e+11 1.825e+11 1.82348e+11 1.78418e+11 1.61439e+11 1.58188e+11 1.47685e+11 1.19985e+11 1.15411e+11 1.02081e+11 9.20696e+10 9.14733e+10 9.07143e+10 8.82521e+10 8.65252e+10 8.37479e+10 8.19112e+10 7.79735e+10 7.50373e+10 7.43652e+10 7.17189e+10 6.78593e+10 6.65286e+10 6.63025e+10 6.35142e+10 6.32284e+10 6.17652e+10 6.03561e+10 5.89243e+10 5.56394e+10 5.38692e+10 5.03045e+10 4.91113e+10 4.86482e+10 4.64159e+10 4.47641e+10 4.33368e+10 4.11454e+10 4.68648e+10
threshold=1.0000000180025095e-35 8.5000000000000018 1.0000000180025095e-35 4.5000000000000009 2.5000000000000004 1.0000000180025095e-35 24.500000000000004 17.500000000000004 27.500000000000004 1.0000000180025095e-35 20.500000000000004 12.500000000000002 2.5000000000000004 18.500000000000004 1.0000000180025095e-35 9.5000000000000018 1.0000000180025095e-35 2.5000000000000004 52.500000000000007 9.5000000000000018 12.500000000000002 19.500000000000004 1.0000000180025095e-35 4.5000000000000009 1.5000000000000002 1.0000000180025095e-35 4.5000000000000009 15.500000000000002 1.5000000000000002 14.500000000000002 12.500000000000002 12.500000000000002 16.500000000000004 6.5000000000000009 2.5000000000000004 10.500000000000002 1.0000000180025095e-35 1.0000000180025095e-35 1.0000000180025095e-35 1.5000000000000002 1.0000000180025095e-35 1.0000000180025095e-35 1.0000000180025095e-35 1.0000000180025095e-35 0.19216417159984991 4.5000000000000009 1.5000000000000002 6.5000000000000009 0.41949923855832688 1.0000000180025095e-35 1.0000000180025095e-35
decision_type=2 2 2 2 2 2 2 2 2 2 2 2 2 2 2 2 2 2 2 2 2 2 2 2 2 2 2 2 2 2 2 2 2 2 2 2 2 2 2 2 2 2 2 2 2 2 2 2 2 2 2
left_child=2 3 4 5 7 12 10 9 16 11 17 14 23 35 21 -5 40 19 20 37 27 25 -14 42 44 29 -18 32 -12 34 -19 -11 38 -15 41 48 -21 -6 45 -26 -4 43 -2 49 -25 47 -20 -16 -7 50 -1
right_child=1 -3 8 15 6 13 -8 -9 -10 31 28 -13 22 33 18 -17 26 30 46 36 -22 -23 -24 24 39 -27 -28 -29 -30 -31 -32 -33 -34 -35 -36 -37 -38 -39 -40 -41 -42 -43 -44 -45 -46 -47 -48 -49 -50 -51 -52
leaf_value=-119.39648082413714 222.00416505096416 12839.52178444988 3329.5440201380356 9491.5150632272289 191.04103382423173 3723.5558266009984 7076.7180277513799 4432.5929094118801 8621.2684187229606 470.33649587327028 2175.2804789807515 4946.7460994413586 1962.3734412065876 3945.98265167408 -34.784707121074959 4172.8470941274691 -783.16069131641166 1468.8822830030101 1091.3298340393551 918.77248077848617 2031.2066818785506 3190.6101210749571 5476.9210629944318 441.05745503177263 4288.0163391804781 601.96112255097421 3161.3720408239255 3170.02872304627 5973.6275560537733 2341.6058838918057 4543.5429452236476 1913.0831700781487 2210.3367010970633 7747.3603108443322 451.37781092380499 4942.5212856046519 3018.4732458133353 1109.6059927759102 299.41085662271081 1326.0859863710743 6006.3732406243043 1127.7643449085394 1934.5613804457546 124.76565537293838 2140.1319168227869 1905.8253817772472 3283.6112618127045 1843.6266267750893 1605.6433301663567 -263.26740572847439 -268.663085936465
leaf_count=544628 10237 441 1362 396 36360 447 305 524 356 21977 476 326 722 338 130047 571 538 3046 2881 7840 1093 341 447 2405 567 5933 333 317 377 467 325 1407 562 361 6879 332 572 3003 26862 463 393 1260 728 23633 853 483 408 471 1792 120734 90860
internal_value=0 8773.43 -178.064 7535.05 -231.854 6282.88 3042.08 -406.217 18478.4 -418.741 2843.93 -499.632 4267.44 16402.8 -508.562 33022.2 14903.2 2556.99 454.494 2089.79 317.995 -706.235 17190.5 3276.62 7192.46 -713.664 3771.24 247.472 20040.3 -742.577 9177.29 2895.81 214.962 30727.9 -750.236 12504.2 5517.85 1357.16 174.803 15371.3 20426 -777.504 1745.09 -788.233 4605.32 -108.444 7087.16 -145.529 10545.4 -833.131 -731.46
internal_count=1058479 21100 1037379 20659 1034397 19692 52304 982093 2982 981569 51999 958185 16422 3270 957859 967 2626 51146 163124 47775 159835 794735 1169 15253 4288 794394 871 158742 853 788461 3371 23384 158425 699 787994 2571 8412 39363 157863 1030 1755 781115 10965 779855 3258 131001 3289 130518 2239 756222 635488
shrinkage=0.192407


Tree=10
num_leaves=52
num_cat=0
split_feature=114 38 114 227 182 25 79 97 220 23 30 44 184 196 68 112 194 130 58 92 91 150 194 150 193 230 216 127 150 147 60 148 109 30 54 193 196 16 215 210 38 29 92 175 191 48 97 31 155 66 133
split_gain=4.27888e+12 8.29542e+11 5.67501e+11 4.3334e+11 4.31171e+11 3.83583e+11 3.21977e+11 3.07562e+11 2.78869e+11 2.50499e+11 2.13189e+11 2.08519e+11 1.76153e+11 1.5945e+11 1.42966e+11 1.31993e+11 1.2868e+11 1.26598e+11 1.23952e+11 1.22738e+11 1.19022e+11 1.1062e+11 9.95209e+10 9.16349e+10 8.98276e+10 8.71027e+10 7.45873e+10 7.8532e+10 6.97324e+10 6.45859e+10 6.41254e+10 5.70581e+10 5.41073e+10 5.38802e+10 5.16552e+10 4.98253e+10 4.83059e+10 4.77545e+10 4.55393e+10 4.53586e+10 4.50771e+10 5.3529e+10 4.4987e+10 4.48509e+10 4.54523e+10 4.41769e+10 4.30875e+10 4.29546e+10 4.2372e+10 4.12421e+10 3.98775e+10
threshold=51.500000000000007 1.0000000180025095e-35 22.500000000000004 0.05527736777501633 11.500000000000002 1.0000000180025095e-35 1.0000000180025095e-35 1.0000000180025095e-35 0.0038639824608296884 15.500000000000002 38.500000000000007 13.500000000000002 15.500000000000002 1.5000000000000002 1.0000000180025095e-35 26.500000000000004 16.500000000000004 1.0000000180025095e-35 32.500000000000007 16.500000000000004 1.0000000180025095e-35 18.500000000000004 6.5000000000000009 18.500000000000004 1.0000000180025095e-35 0.12857405860908808 1.0000000180025095e-35 1.0000000180025095e-35 75.500000000000014 16.500000000000004 5.5000000000000009 1.0000000180025095e-35 6.5000000000000009 8.5000000000000018 3.5000000000000004 1.0000000180025095e-35 1.0000000180025095e-35 1.0000000180025095e-35 1.0000000180025095e-35 1.0000000180025095e-35 18.500000000000004 2.5000000000000004 16.500000000000004 1.0000000180025095e-35 2.5000000000000004 2.5000000000000004 1.0000000180025095e-35 1.0000000180025095e-35 14.500000000000002 1.0000000180025095e-35 1.0000000180025095e-35
decision_type=2 2 2 2 2 2 2 2 2 2 2 2 2 2 2 2 2 2 2 2 2 2 2 2 2 2 2 2 2 2 2 2 2 2 2 2 2 2 2 2 2 2 2 2 2 2 2 2 2 2 2
left_child=1 7 5 -4 8 6 10 9 -2 11 15 14 -8 20 16 19 17 18 21 22 23 24 28 30 26 -7 27 29 34 33 32 -23 45 37 40 -15 -26 38 39 -1 43 -42 -22 49 -45 -9 -27 -16 -20 -3 -29
right_child=4 2 3 -5 -6 25 12 13 -10 -11 -12 -13 -14 35 47 -17 -18 -19 48 -21 42 31 -24 -25 36 46 -28 50 -30 -31 -32 -33 -34 -35 -36 -37 -38 -39 -40 -41 41 -43 -44 44 -46 -47 -48 -49 -50 -51 -52
leaf_value=-171.74260998400675 17757.096407882898 190.95047986304823 2236.1978980932349 10870.863997346101 6947.0036806679391 6262.9669882817961 1824.9414757778925 110.84951902280589 10281.828458423546 5052.5600536170632 4273.5235726131659 3221.0994496735361 5696.9743889877391 1689.0807468088497 710.17174531069236 4275.4126839015626 2752.4817744811835 963.93882915554991 3843.5107714380674 2527.0261877816456 1268.8081886549226 163.22728126742825 2687.09373046372 901.10185270114312 458.6733134505958 1397.1062891876761 163.95244209288072 56.94621828764398 3194.0901365588711 2105.1283183339788 2764.2614388063475 924.69336148924492 2574.749447265599 400.15243214232339 1748.4571192108306 4808.9624054049546 2233.3305903705482 480.07504089558057 33.077004941425699 73.287922557962318 133.14345489736726 -2660.3728039161683 3474.3903892094022 477.7621646392077 1708.9100441647729 724.41392681952391 4455.1783126012888 2845.6885255856455 784.08847276935353 1732.6923797483519 592.5339285935512
leaf_count=728826 381 38052 577 343 535 440 1959 62763 363 351 535 705 559 429 5726 325 587 4150 380 972 1507 18550 661 7194 4676 374 33285 28241 308 473 353 4533 343 6706 883 340 646 4464 46878 29084 639 421 443 4441 1480 4667 314 371 300 653 6293
internal_value=0 -69.5834 3750.8 28369.6 57797.2 3323.39 2926.71 -274.971 73369.5 -435.773 2364.08 -445.915 13956.1 1631.48 -459.032 2146.49 -491.086 -500.558 -525.598 2011.83 1488.84 -535.657 1784.32 1289.12 -591.738 21563.8 -616.391 -673.831 1612.45 -736.31 930.675 1625.59 860.614 -743.084 1513.19 15956.4 3504.16 -766.477 -784.569 -843.729 1366.73 -5077.25 9201.5 1519.83 4082.92 796.849 14523.6 4367.2 12966.9 1127.7 803.241
internal_count=1058479 1057200 53936 920 1279 53016 51888 1003264 744 925225 49370 924874 2518 78039 924169 48835 918072 917485 913335 48510 77270 912655 47538 75320 889572 1128 884250 850965 46877 816431 68126 23083 67773 815958 46569 769 5322 809252 804788 757910 45686 1060 1950 44626 5921 67430 688 6097 680 38705 34534
shrinkage=0.192407


Tree=11
num_leaves=52
num_cat=0
split_feature=38 117 69 144 41 183 23 65 195 36 44 48 230 195 175 25 58 144 62 103 153 176 175 70 23 20 130 61 89 155 195 38 61 117 231 194 147 127 92 182 113 62 92 69 50 141 140 117 41 219 118
split_gain=1.08153e+12 8.46454e+11 4.80893e+11 2.94886e+11 2.41223e+11 2.32124e+11 2.27612e+11 2.25474e+11 2.04058e+11 2.00593e+11 1.91845e+11 1.76743e+11 1.69944e+11 1.68099e+11 1.59382e+11 1.48313e+11 1.55067e+11 1.38632e+11 1.34989e+11 1.19071e+11 1.0523e+11 8.93499e+10 8.90367e+10 9.57216e+10 8.27016e+10 8.17383e+10 8.0612e+10 7.93355e+10 7.51463e+10 6.89982e+10 6.85307e+10 6.45268e+10 5.94424e+10 7.6134e+10 5.94423e+10 5.87877e+10 5.42548e+10 5.21362e+10 5.04111e+10 4.84255e+10 4.82372e+10 5.30172e+10 4.60813e+10 4.43554e+10 4.40175e+10 4.18697e+10 6.60044e+10 4.04702e+10 4.03592e+10 3.86551e+10 3.79349e+10
threshold=9.5000000000000018 4.5000000000000009 1.0000000180025095e-35 3.5000000000000004 1.0000000180025095e-35 1.5000000000000002 1.5000000000000002 20.500000000000004 47.500000000000007 13.500000000000002 18.500000000000004 1.0000000180025095e-35 0.15262808368261116 22.500000000000004 4.5000000000000009 2.5000000000000004 26.500000000000004 35.500000000000007 2.5000000000000004 6.5000000000000009 1.0000000180025095e-35 12.500000000000002 3.5000000000000004 5.5000000000000009 29.500000000000004 1.0000000180025095e-35 2.5000000000000004 5.5000000000000009 17.500000000000004 2.5000000000000004 1.0000000180025095e-35 1.5000000000000002 20.500000000000004 1.0000000180025095e-35 0.14705623403611129 8.5000000000000018 13.500000000000002 1.0000000180025095e-35 1.0000000180025095e-35 9.5000000000000018 1.0000000180025095e-35 1.0000000180025095e-35 22.500000000000004 15.500000000000002 1.0000000180025095e-35 1.0000000180025095e-35 1.0000000180025095e-35 1.0000000180025095e-35 7.5000000000000009 0.16038352000132569 1.0000000180025095e-35
decision_type=2 2 2 2 2 2 2 2 2 2 2 2 2 2 2 2 2 2 2 2 2 2 2 2 2 2 2 2 2 2 2 2 2 2 2 2 2 2 2 2 2 2 2 2 2 2 2 2 2 2 2
left_child=2 4 6 7 14 -3 8 13 9 10 11 17 -7 15 32 16 22 19 27 20 25 29 23 35 38 26 28 -6 30 -13 36 -5 33 -2 -25 42 37 44 -8 -31 -32 -42 43 -4 48 -39 -47 -46 50 -41 -1
right_child=1 5 3 31 18 12 24 -9 -10 -11 -12 21 -14 -15 -16 -17 -18 -19 -20 -21 -22 -23 -24 34 -26 -27 -28 -29 -30 39 40 -33 -34 -35 -36 -37 -38 45 -40 49 41 -43 -44 -45 47 46 -48 -49 -50 -51 -52
leaf_value=-129.23511698393091 517.51132385121855 10497.414361371879 175.29596076174295 2858.1884372884742 4460.7788278321677 1493.9824226609614 413.14911725402135 4639.7530605735792 4955.6623479473474 4784.694414018084 3452.9648107185985 104.31615740058039 7584.1935439921936 4801.1679572795365 4784.598084078275 4091.6336130988934 3530.9565966060236 3874.5900283188344 7436.5251012099743 1565.3502077786879 439.41891865452948 1973.6209739647763 1661.723088112572 799.24021969898945 5131.5954337496105 1624.6950810176124 1126.6653314317537 658.79343884663604 2386.7928723719447 428.72344025352476 95.013492963435453 6381.6056262421298 -1395.0427012083589 3035.5450933276738 2844.5886960221128 2579.9130468764465 1411.7682664898809 9.7262793440830393 2835.8941914119782 911.42193727583765 360.83663957862041 3095.6560967883543 2327.859745491503 1160.6922240083247 209.03964984472992 965.91519922325801 -220.85179254275968 2219.3877314684669 1535.4415930430152 2778.9025532156465 488.56833246154162
leaf_count=804048 3749 456 44854 539 438 304 657 479 301 317 577 55131 384 326 359 404 576 328 306 1626 14086 1076 1867 1497 301 1027 2003 379 451 14378 48161 300 503 504 811 397 867 26563 616 1485 713 415 384 1757 9151 4682 2756 386 541 567 3696
internal_value=0 12061.9 -84.3766 2816.74 7475.03 37062.3 -242.08 2524.13 -261.084 -268.963 -276.983 -287.567 25443 2328.36 4560.5 2187.82 2039.86 -405.947 20744.1 -413.27 -428.39 1214.25 1857.53 1602.82 11772.3 -470.584 -480.71 14023.2 -494.776 1078.22 -501.231 21414.5 3025.87 4241.77 7891.01 1296.52 -567.502 -575.551 8242.88 2876.9 645.241 7108.28 1194.1 1104.16 -625.995 637.773 2734.79 1509.76 -651.196 7420.95 -656.981
internal_count=1058479 7382 1051097 54191 6238 1144 996906 53352 995332 995031 994714 994137 688 52873 5115 52547 52143 921500 1123 921172 919546 72637 51567 49700 1574 905460 904433 817 902430 71561 901979 839 4756 4253 2308 47392 852690 851823 1273 16430 49289 1128 46995 46611 817822 34001 7438 9537 808285 2052 807744
shrinkage=0.192407


Tree=12
num_leaves=52
num_cat=0
split_feature=114 65 36 37 144 25 184 65 114 176 195 23 44 45 108 58 193 150 144 88 16 47 123 16 41 150 153 195 176 58 134 199 49 114 217 47 110 139 193 24 154 231 49 184 109 229 115 217 123 114 183
split_gain=2.18659e+12 4.90596e+11 3.92125e+11 3.59329e+11 3.55143e+11 3.5003e+11 3.09903e+11 2.91966e+11 2.05395e+11 1.87161e+11 1.57329e+11 1.42467e+11 1.3573e+11 1.17765e+11 1.12683e+11 1.02648e+11 9.40773e+10 8.73708e+10 8.16503e+10 8.1359e+10 8.08926e+10 6.96258e+10 6.12602e+10 1.60856e+11 5.98888e+10 5.48175e+10 5.47757e+10 5.27907e+10 5.15749e+10 5.00427e+10 4.94118e+10 4.93609e+10 4.72882e+10 7.32957e+10 5.25753e+10 4.6606e+10 4.55585e+10 4.03028e+10 3.98689e+10 3.78315e+10 3.71761e+10 3.6846e+10 3.6034e+10 3.49263e+10 3.46568e+10 3.42022e+10 3.33393e+10 3.46887e+10 3.31885e+10 3.26616e+10 8.59372e+10
threshold=51.500000000000007 29.500000000000004 18.500000000000004 9.5000000000000018 60.000000000000007 3.5000000000000004 5.5000000000000009 1.0000000180025095e-35 31.500000000000004 27.500000000000004 21.500000000000004 27.500000000000004 18.500000000000004 1.0000000180025095e-35 15.500000000000002 15.500000000000002 11.500000000000002 106.50000000000001 1.0000000180025095e-35 1.0000000180025095e-35 1.0000000180025095e-35 1.0000000180025095e-35 3.5000000000000004 1.5000000000000002 11.500000000000002 1.0000000180025095e-35 1.0000000180025095e-35 40.500000000000007 1.5000000000000002 27.500000000000004 1.0000000180025095e-35 1.0000000180025095e-35 1.0000000180025095e-35 12.500000000000002 0.12906283303123744 1.0000000180025095e-35 4.5000000000000009 1.0000000180025095e-35 6.5000000000000009 9.5000000000000018 7.5000000000000009 0.12974145743115587 1.5000000000000002 4.5000000000000009 1.5000000000000002 0.038340221235653546 1.5000000000000002 0.071438778547627521 3.5000000000000004 5.5000000000000009 2.5000000000000004
decision_type=2 2 2 2 2 2 2 2 2 2 2 2 2 2 2 2 2 2 2 2 2 2 2 2 2 2 2 2 2 2 2 2 2 2 2 2 2 2 2 2 2 2 2 2 2 2 2 2 2 2 2
left_child=1 2 4 6 5 7 -2 8 12 10 15 20 13 14 16 19 17 18 21 35 25 22 24 -24 26 -7 27 30 -17 45 32 46 33 39 -35 38 42 -32 40 41 49 -1 -21 -18 -43 -30 -15 -48 -22 -9 -51
right_child=3 -3 -4 -5 -6 11 -8 9 -10 -11 -12 -13 -14 31 -16 28 43 -19 -20 36 48 -23 23 -25 -26 -27 -28 -29 29 -31 37 -33 -34 34 -36 -37 -38 -39 -40 -41 -42 44 -44 -45 -46 -47 47 -49 -50 50 -52
leaf_value=-131.47679499855505 13078.842214038204 7542.2603308335174 6750.3166455514947 2607.8931206652705 6227.7906247574019 1654.7673722263887 6040.4240232182001 85.636746861745962 4656.2100328825891 4855.2983899792926 3733.5020713819672 6027.5446708042646 2914.2212012691166 367.17032474505953 2494.112043046212 786.6175856057813 920.06371531419381 2033.1040631834881 781.20996482871294 555.54846258428483 -1285.9050269306947 445.7997676480781 168.98194582403488 3035.226501058512 2125.1586943347093 4316.7482882822042 291.54914733122985 2395.7940587223143 2971.3535850024518 4533.7453297855718 643.61679808152985 2305.2649054328008 183.69482736977983 338.72393066057168 3480.6883687024792 1093.2690846179446 2947.8586561241914 -686.19858011940664 2174.0505548652682 1963.2333600348106 2057.8332435476054 -54.636649729236005 1911.9086072926518 3064.7119268645811 1322.9131818174089 271.86986636042235 167.87476370839451 2538.2685256044897 1476.5648764497118 2921.3906096159913 -734.71336262446732
leaf_count=532744 513 318 317 342 337 752 424 54274 343 339 498 340 571 9762 639 1466 1034 735 4203 11873 344 9641 7418 803 456 463 14502 317 353 326 5539 573 22810 440 357 1927 324 995 351 329 363 363645 772 386 677 342 388 556 302 511 445
internal_value=0 -49.6825 -61.5058 41316.7 -72.0626 -82.4242 51440.6 -108.733 -253.528 1804.31 1696.6 12514.2 -262.1 -271.093 -308.539 1576.24 -317.314 -329.276 -337.58 1354.53 9071.55 -356.822 -383.928 2333.96 -407.628 13877.7 -413.174 -443.316 7890.34 13346 -447.728 2941.45 -467.169 -503.279 9080.05 847.191 3618.31 2292.45 680.616 -511.794 613.498 -515.728 3318.01 7815.16 -270.652 8543.48 2457.24 8130.9 29.2849 547.165 6340.29
internal_count=1058479 1057200 1056882 1279 1056565 1056228 937 1054027 979863 74164 73825 2201 979520 978949 967670 73327 967031 965611 964876 70840 1861 960673 951032 8221 942811 1215 942355 927853 2487 1021 927536 11279 921002 898192 797 57871 12969 6534 55944 897395 55593 897066 12645 1420 364322 695 10706 944 646 55230 956
shrinkage=0.192407


Tree=13
num_leaves=52
num_cat=0
split_feature=114 65 22 114 42 119 58 36 9 144 195 23 176 117 20 119 112 103 171 191 142 25 147 174 118 130 44 191 54 150 112 176 58 76 179 195 231 148 182 91 150 61 37 70 115 233 87 46 150 150 60
split_gain=1.4372e+12 3.35981e+11 3.23801e+11 2.79127e+11 4.39788e+11 3.75288e+11 2.74074e+11 2.43358e+11 2.38864e+11 2.27584e+11 2.14927e+11 2.08814e+11 1.89826e+11 1.77767e+11 1.7268e+11 1.3527e+11 1.30793e+11 9.13375e+10 8.33159e+10 7.84622e+10 7.75071e+10 7.18624e+10 6.58822e+10 6.29599e+10 5.76299e+10 5.68648e+10 5.48496e+10 5.40474e+10 5.0384e+10 4.93001e+10 4.86833e+10 4.63606e+10 4.52207e+10 4.27215e+10 4.48178e+10 4.20871e+10 3.88051e+10 3.94542e+10 3.49724e+10 3.56173e+10 3.49237e+10 3.20196e+10 3.10647e+10 3.01332e+10 3.00524e+10 2.98846e+10 2.78929e+10 2.76718e+10 2.73299e+10 2.6645e+10 2.60933e+10
threshold=83.500000000000014 26.500000000000004 1.5000000000000002 19.500000000000004 1.0000000180025095e-35 1.0000000180025095e-35 62.500000000000007 17.500000000000004 1.0000000180025095e-35 60.000000000000007 57.500000000000007 6.5000000000000009 9.5000000000000018 11.500000000000002 15.500000000000002 1.0000000180025095e-35 1.0000000180025095e-35 18.500000000000004 2.5000000000000004 28.500000000000004 1.0000000180025095e-35 9.5000000000000018 17.500000000000004 1.5000000000000002 2.5000000000000004 1.0000000180025095e-35 17.500000000000004 32.500000000000007 1.5000000000000002 74.500000000000014 7.5000000000000009 27.500000000000004 5.5000000000000009 5.5000000000000009 1.5000000000000002 7.5000000000000009 0.17170317764761747 1.5000000000000002 2.5000000000000004 4.5000000000000009 35.500000000000007 23.500000000000004 1.5000000000000002 2.5000000000000004 4.5000000000000009 0.46220000000000006 2.5000000000000004 1.0000000180025095e-35 23.500000000000004 12.500000000000002 4.5000000000000009
decision_type=2 2 2 2 2 2 2 2 2 2 2 2 2 2 2 2 2 2 2 2 2 2 2 2 2 2 2 2 2 2 2 2 2 2 2 2 2 2 2 2 2 2 2 2 2 2 2 2 2 2 2
left_child=1 2 3 6 5 8 7 9 -5 10 11 12 14 -2 15 17 -7 20 31 24 22 45 23 25 29 26 27 28 36 33 35 44 -20 34 43 -22 37 38 39 46 -38 -40 -37 49 -14 -13 50 -26 -39 -17 -1
right_child=13 -3 -4 4 -6 16 -8 -9 -10 -11 -12 21 18 -15 -16 19 -18 -19 32 -21 30 -23 -24 -25 47 -27 -28 -29 -30 -31 -32 -33 -34 -35 -36 42 40 48 41 -41 -42 -43 -44 -45 -46 -47 -48 -49 -50 -51 -52
leaf_value=-105.71142424693323 10892.987038616689 5381.4460442508253 5703.1114978364403 2149.1698112741187 -4260.2527643717958 2801.5488531908591 5739.5732000576527 5269.594745673573 8754.7008340802749 5242.8195413201802 5126.8677377131717 97.379833283740041 459.08441296085891 4969.4935868356933 4484.968210180029 95.885050914839425 -2217.173448241896 2668.1020843017004 1378.4099007710731 2641.6321431901652 157.41959158311232 4387.7187523959956 1806.5702595609343 724.12231067496089 820.20132742073167 654.66523771534878 2230.6084478384173 1449.0625152452096 227.88855423916047 2129.6658297201902 1906.9845841700296 2572.6071541295046 4347.2819740942796 1819.4578551004608 -1720.2126721161221 538.9168988797079 17.185017669325035 69.493925285773855 -281.6788911927415 1507.4657189922154 1030.477320143525 -2245.4277322835756 2892.4422549464011 977.24776041320285 1887.566772541081 2640.1058601379295 99.007641972402965 2538.5258780047088 723.28391842488031 472.28808840065182 1041.0188709939439
leaf_count=703072 434 428 367 323 318 413 306 322 545 304 300 361 6859 332 313 73914 359 456 399 483 35595 472 695 3709 1612 3989 382 861 19789 467 621 455 363 562 478 496 99304 23645 32078 512 1275 310 357 1589 592 325 25845 442 2630 7686 735
internal_value=0 -31.067 -42.4116 -52.7291 11874.8 18474.2 -74.8707 -83.5579 32735.9 -91.9575 -99.8526 -107.477 -122.244 43289.8 -160.942 -167.99 2431.14 -276.725 4538.06 1024.09 -283.477 13311.4 -340.672 -348.041 953.29 -364.719 -381.226 -386.257 -393.758 826.347 1134.19 3575.14 14522 769.512 711.12 984.55 -428.872 -503.458 -544.972 -499.868 156.095 -1561.79 7924.59 766.617 2976.34 6771.05 -505.72 6186.66 701.347 682.618 -543.187
internal_count=1058479 1057713 1057285 1056918 1958 1640 1054960 1054654 868 1054332 1054028 1053728 1052570 766 1043902 1043589 772 956356 8668 87233 955900 1158 918831 918136 86750 914427 910438 910056 909195 84696 37069 7906 762 84229 83667 36448 889406 788827 762552 730164 100579 32388 853 83189 7451 686 729652 2054 26275 81600 703807
shrinkage=0.192407


Tree=14
num_leaves=52
num_cat=0
split_feature=114 175 197 217 41 114 22 222 175 115 36 186 195 30 117 21 37 103 13 219 54 69 130 194 194 24 13 154 79 217 224 91 178 49 166 196 193 90 123 46 48 220 24 227 16 16 123 153 97 103 191
split_gain=9.37763e+11 2.59338e+11 2.28661e+11 1.68163e+11 1.45045e+11 1.29622e+11 1.16728e+11 1.15417e+11 1.12615e+11 9.89863e+10 9.6884e+10 8.31298e+10 8.25892e+10 8.08767e+10 7.01046e+10 6.60575e+10 6.5421e+10 6.39857e+10 5.92334e+10 5.30818e+10 5.24067e+10 5.14058e+10 5.12363e+10 5.08378e+10 4.80883e+10 4.68394e+10 4.36414e+10 4.1456e+10 3.93409e+10 6.80253e+10 4.60671e+10 4.12136e+10 3.88873e+10 3.65278e+10 3.58544e+10 3.35434e+10 3.29139e+10 3.15716e+10 3.1664e+10 3.27554e+10 3.05386e+10 3.04168e+10 2.99161e+10 2.90675e+10 2.90449e+10 2.88798e+10 4.75629e+10 2.75653e+10 2.75165e+10 2.71654e+10 2.68755e+10
threshold=83.500000000000014 23.500000000000004 1.0000000180025095e-35 0.094412216454782108 11.500000000000002 19.500000000000004 1.0000000180025095e-35 0.24595110636935105 1.0000000180025095e-35 2.5000000000000004 13.500000000000002 8.5000000000000018 13.500000000000002 1.5000000000000002 4.5000000000000009 3.5000000000000004 18.500000000000004 3.5000000000000004 2.5000000000000004 0.086192245491037323 2.5000000000000004 9.5000000000000018 4.5000000000000009 1.0000000180025095e-35 6.5000000000000009 1.0000000180025095e-35 1.5000000000000002 18.500000000000004 1.0000000180025095e-35 0.050388509853395318 28375.500000000004 10.500000000000002 10.500000000000002 2.5000000000000004 1.0000000180025095e-35 1.0000000180025095e-35 12.500000000000002 6.5000000000000009 1.0000000180025095e-35 8.5000000000000018 12.500000000000002 0.0059429717798231635 3.5000000000000004 0.058343215195008728 1.5000000000000002 1.5000000000000002 5.5000000000000009 1.0000000180025095e-35 1.0000000180025095e-35 1.5000000000000002 3.5000000000000004
decision_type=2 2 2 2 2 2 2 2 2 2 2 2 2 2 2 2 2 2 2 2 2 2 2 2 2 2 2 2 2 2 2 2 2 2 2 2 2 2 2 2 2 2 2 2 2 2 2 2 2 2 2
left_child=1 2 4 -2 6 9 8 -6 10 18 13 50 16 15 20 17 32 21 24 -14 34 22 23 25 28 26 27 36 31 -30 48 40 33 35 -15 42 37 38 39 47 -4 -36 49 -22 -27 -40 -47 -1 -31 -10 -11
right_child=3 -3 5 -5 7 -7 -8 -9 12 11 -12 -13 19 14 -16 -17 -18 -19 -20 -21 43 -23 -24 -25 -26 44 -28 -29 29 30 -32 -33 -34 -35 41 -37 -38 -39 45 -41 -42 -43 -44 -45 -46 46 -48 -49 -50 -51 -52
leaf_value=-87.481665009113215 3246.1651791438976 5503.1484381407363 183.24746041463743 9065.2041998791774 688.93832883093216 3403.4851711758056 3465.8233481303259 5381.6371290698826 117.42082302803855 763.64330758624942 3408.4065314574505 4447.5879648871041 710.4374987296228 116.5781725876499 2493.7427135905518 2367.1253739407889 2250.5472765438749 945.65892687122084 2858.3606186150773 4060.5082009064117 822.31579228425403 723.22744555659892 1094.3428016617077 373.22846525599118 2079.8488017196837 138.63505309566307 2225.8135420295666 2185.2846206518761 -598.79692694194966 1685.2643310680678 395.48552689558949 2011.0259612159771 2106.8296749697984 1729.9280028914727 1590.8152814315367 1540.448239329909 1087.226380211036 -1915.9478649632181 81.148339015424057 1347.8936841103798 2126.3565374392228 -355.67658005843265 1952.7761347450512 2757.0567037092669 1647.453831760145 252.09285164767394 2594.7262399644528 205.84653204957988 4030.7102820982359 1336.6375781969818 2330.2363835824422
leaf_count=844429 308 316 30852 458 490 546 354 321 42986 1617 301 327 361 33023 503 417 587 2364 340 340 1134 3119 1423 9878 557 32146 305 300 544 354 420 473 395 563 1115 652 900 345 24917 592 302 405 338 385 479 1098 453 12029 390 687 541
internal_value=0 -25.0583 -33.6233 34968.2 -122.5 2399.5 -133.139 13242.5 -139.449 2171.97 -212.479 8265.58 1373.88 -218.039 1240.94 -275.084 1210.4 -280.699 1729.53 12143.9 1077.34 -293.874 -307.478 -316.674 1597.69 -340.955 -384.316 -388.44 1443.64 6117.88 10431.2 1191.15 1075.38 989.045 824.502 888.103 -392.428 -398.583 -394.847 -428.115 1050.42 5572.64 782.585 6825.32 835.758 682.401 4868.64 -433.256 15156 710.009 6011.79
internal_count=1058479 1057713 1057397 766 1020134 37263 1019323 811 1018969 36717 972060 2485 46909 971759 36565 935194 46208 934777 34232 701 36062 932413 929294 927871 33892 917993 885368 885063 33335 1708 1164 31627 45621 45226 34543 44663 884763 883863 883518 857050 31154 1520 44011 1519 32625 26468 1551 856458 744 43673 2158
shrinkage=0.192407


Tree=15
num_leaves=52
num_cat=0
split_feature=114 38 114 182 9 227 114 65 144 196 21 76 44 103 150 90 174 1 115 25 181 79 1 38 45 89 154 60 108 61 38 182 219 177 155 31 175 20 182 216 16 123 10 61 37 58 89 64 70 68 93
split_gain=6.50016e+11 2.10931e+11 3.32437e+11 5.79699e+11 4.23761e+11 3.20977e+11 2.03982e+11 1.8319e+11 1.3918e+11 1.07926e+11 1.02057e+11 9.1143e+10 8.96218e+10 8.18087e+10 7.96425e+10 7.81963e+10 7.24428e+10 6.8416e+10 6.7621e+10 7.7243e+10 1.42859e+11 6.02196e+10 8.42602e+10 5.65152e+10 6.63829e+10 5.21343e+10 5.08906e+10 4.8582e+10 4.82522e+10 4.7531e+10 4.72914e+10 4.66312e+10 7.1654e+10 4.59094e+10 4.58299e+10 4.52583e+10 4.35263e+10 4.34602e+10 3.72243e+10 4.3441e+10 3.8195e+10 6.65788e+10 3.70267e+10 3.61463e+10 3.33068e+10 3.23441e+10 3.15546e+10 3.05454e+10 2.94744e+10 2.80742e+10 2.70451e+10
threshold=111.50000000000001 1.0000000180025095e-35 25.500000000000004 20.500000000000004 1.0000000180025095e-35 0.05527736777501633 21.500000000000004 18.500000000000004 30.500000000000004 7.5000000000000009 1.0000000180025095e-35 5.5000000000000009 1.0000000180025095e-35 15.500000000000002 52.500000000000007 7.5000000000000009 1.5000000000000002 1.0000000180025095e-35 1.0000000180025095e-35 10.500000000000002 1.5000000000000002 1.0000000180025095e-35 6.5000000000000009 18.500000000000004 1.0000000180025095e-35 21.500000000000004 14.500000000000002 12.500000000000002 12.500000000000002 14.500000000000002 28.500000000000004 1.0000000180025095e-35 0.14208804529972152 1.5000000000000002 17.500000000000004 1.0000000180025095e-35 2.5000000000000004 2.5000000000000004 3.5000000000000004 1.0000000180025095e-35 1.0000000180025095e-35 2.5000000000000004 1.5000000000000002 4.5000000000000009 1.5000000000000002 31.500000000000004 1.0000000180025095e-35 10.500000000000002 3.5000000000000004 2.5000000000000004 5.5000000000000009
decision_type=2 2 2 2 2 2 2 2 2 2 2 2 2 2 2 2 2 2 2 2 2 2 2 2 2 2 2 2 2 2 2 2 2 2 2 2 2 2 2 2 2 2 2 2 2 2 2 2 2 2 2
left_child=1 6 7 4 -4 -6 9 8 10 11 15 12 13 14 18 16 17 23 19 25 -21 22 43 24 28 26 27 35 50 -26 44 -16 -33 -18 -34 37 49 38 39 40 42 -42 45 -19 -25 46 -1 -40 -49 -20 -3
right_child=-2 2 3 -5 5 -7 -8 -9 -10 -11 -12 -13 -14 -15 31 -17 33 21 36 20 -22 -23 -24 30 29 -27 -28 -29 -30 -31 -32 32 34 -35 -36 -37 -38 -39 47 -41 41 -43 -44 -45 -46 -47 -48 48 -50 -51 -52
leaf_value=-71.087887505561028 7135.8930545606972 91.319456890455498 -343.26582390247444 -4304.8682022443909 4344.302025418112 11972.607104015253 -4971.0183522902225 4294.4393892945072 3914.7029656983495 2882.8919649986742 3596.7370821452168 1332.701454609065 942.19232310430311 2331.2761266549128 83.48486368272674 -2074.9304851169568 924.75497936982788 3047.760152358876 131.67855816275335 4780.792001621423 -922.22118725633879 3703.1284868055673 -1239.9639050219459 -796.98997366197989 811.5776355894601 2161.5716160948814 2107.0368801248023 2023.6604513927387 2296.1263256068933 3198.2593099490678 506.64560470951784 425.60559797633653 1636.2527753574054 3815.2852544122593 4315.2830622808624 197.12154094504317 994.29295411632631 1620.1438166948165 -287.01545794944457 163.93074595038476 157.17651721430718 2143.3731428930755 1853.6609796550301 827.50265957499835 -3218.9940284228755 1891.5505539732505 121.80766746210007 84.90330360903252 1963.1413801457199 1914.2312683914888 992.01077847740692
leaf_count=804347 472 43337 377 308 510 341 308 418 381 473 330 1832 3530 543 2590 551 574 471 47256 339 312 326 499 442 2033 395 405 418 379 364 442 1850 948 315 315 26619 2338 571 34810 33627 3402 765 373 641 401 313 32670 1203 416 329 1270
internal_value=0 -16.3007 1895.78 16397.6 26125.8 38485.5 -120.567 1476.76 1311.46 -112.661 1172.85 -119.789 -132.691 -150.498 -157.186 1061.63 1188.46 1031.21 -178.633 -238.803 10647.1 6858.9 4348.35 799.217 976.695 -246.344 -251.173 -256.006 703.449 6103.97 -5743.49 3568.96 6176.96 10135.4 11982.3 -260.806 955.499 -298.301 -303.763 -262.55 -307.069 2712.84 -322.092 9192.06 -10134.8 -326.532 -330.335 -1294.22 2951.31 748.505 607.934
internal_count=1058479 1058007 54710 1536 1228 851 1003297 53174 52756 1002989 52375 1002516 1000684 997154 996611 52045 51494 50605 990908 940985 651 1937 1611 48668 47383 940334 939939 939534 44986 2397 1285 5703 3113 889 1263 939116 49923 912497 911926 875497 841870 4167 837703 1112 843 837330 837017 36429 1619 47585 44607
shrinkage=0.192407


Tree=16
num_leaves=52
num_cat=0
split_feature=114 175 22 88 114 227 182 217 23 58 108 196 195 21 30 118 40 88 113 114 150 92 193 103 182 47 128 38 144 191 139 141 140 133 44 191 137 219 25 93 184 183 35 182 10 221 220 169 92 30 0
split_gain=4.32114e+11 1.70334e+11 1.70332e+11 1.4494e+11 1.47377e+11 3.6437e+11 3.72706e+11 2.22765e+11 1.34474e+11 1.14896e+11 9.28427e+10 8.80273e+10 8.08053e+10 7.14005e+10 7.5159e+10 6.89619e+10 6.74184e+10 6.67382e+10 7.19038e+10 7.53151e+10 6.37648e+10 6.23658e+10 6.0602e+10 5.71145e+10 5.46499e+10 5.15383e+10 5.01061e+10 4.9715e+10 4.87527e+10 4.68879e+10 4.17811e+10 7.1784e+10 1.42465e+11 5.17336e+10 4.27012e+10 4.26316e+10 4.21567e+10 3.85524e+10 4.69467e+10 3.82531e+10 3.61131e+10 3.49238e+10 3.41912e+10 4.0429e+10 3.39741e+10 3.3889e+10 3.50769e+10 3.37952e+10 3.34125e+10 3.28638e+10 3.10798e+10
threshold=117.50000000000001 23.500000000000004 2.5000000000000004 1.0000000180025095e-35 23.500000000000004 0.063696201103786057 2.5000000000000004 0.078429812472574717 3.5000000000000004 53.500000000000007 21.500000000000004 4.5000000000000009 46.500000000000007 7.5000000000000009 33.500000000000007 10.500000000000002 2.5000000000000004 43.500000000000007 13.500000000000002 28.500000000000004 77.500000000000014 34.500000000000007 30.500000000000004 1.5000000000000002 1.0000000180025095e-35 1.0000000180025095e-35 1.0000000180025095e-35 7.5000000000000009 1.0000000180025095e-35 1.0000000180025095e-35 1.0000000180025095e-35 1.0000000180025095e-35 1.0000000180025095e-35 1.5000000000000002 17.500000000000004 36.500000000000007 2.5000000000000004 0.1331278987087384 14.500000000000002 1.0000000180025095e-35 5.5000000000000009 2.5000000000000004 1.5000000000000002 3.5000000000000004 1.0000000180025095e-35 0.87513934331721444 0.0056624872045504598 1.5000000000000002 4.5000000000000009 12.500000000000002 1.0000000180025095e-35
decision_type=2 2 2 2 2 2 2 2 2 2 2 2 2 2 2 2 2 2 2 2 2 2 2 2 2 2 2 2 2 2 2 2 2 2 2 2 2 2 2 2 2 2 2 2 2 2 2 2 2 2 2
left_child=1 2 3 4 9 6 -6 -8 11 10 12 17 13 14 15 16 20 18 19 21 22 28 23 25 -22 26 30 -27 45 -16 31 33 36 34 35 37 41 38 42 -19 -25 -33 44 -44 -1 46 47 -5 -45 -30 -39
right_child=-2 -3 -4 8 5 -7 7 -9 -10 -11 -12 -13 -14 -15 29 -17 -18 39 -20 -21 24 -23 -24 40 -26 27 -28 -29 49 -31 -32 32 -34 -35 -36 -37 -38 50 -40 -41 -42 -43 43 48 -46 -47 -48 -49 -50 -51 -52
leaf_value=-90.274719891652424 6116.9372478911064 4440.3910962114196 4411.4517309040593 321.31731986173753 5644.108688214299 7573.2931790610401 -6059.804279464819 774.45355673016206 4362.3775597037857 3602.2783994379056 2787.2565735961653 3500.9555466230631 2911.9748229971747 2594.5487589405197 528.14329727291226 2553.2723230029042 2692.339250663782 924.55676781345505 -2545.1534192851445 3269.270521862843 108.29296403919884 2833.714325722623 2571.2557930136709 462.96015339846008 2127.626041576541 435.86942274580849 348.82786475213436 -1969.8037307168554 581.36101083800656 2970.0665442356735 -485.63173958906145 480.88220599101032 -320.47072386475696 1135.3952211252417 1656.1601651498734 1432.1169934859113 -670.79782497237841 -20.853003388884552 2185.4329892306901 3594.7223137570686 2223.0081613266075 1127.1807309118176 -199.60033372316192 -773.78250294363238 1622.008375227444 -179.88057340544475 -23.03962393725374 1209.7465373598482 -2513.1026039770213 2439.7540859476935 469.31473264429934
leaf_count=475584 427 319 323 26410 322 327 315 401 301 323 434 313 346 384 749 382 336 506 341 305 1058 340 330 3898 934 11147 11941 327 902 476 7999 6647 8324 1356 540 713 786 450046 334 327 485 5794 5270 1885 429 7816 11601 1686 522 578 4840
internal_value=0 -12.6066 -19.5786 -26.5962 -110.305 10272 1097.42 -11609.8 1610.88 -124.415 -130.483 1486.71 -136.808 -142.079 -147.3 -156.873 -161.999 1383.66 1235.66 1335.12 -166.755 1238.2 -178.024 -182.503 5484.86 -198.378 -222.973 1908.7 1144.47 7679.63 -248.009 -229.105 1575.42 -270.41 -279.313 -284.424 3615.03 -290.295 -486.736 10258.9 3419.25 4063.77 -494.924 -2588.44 -461.158 968.383 1343.13 1947.15 -5983.73 6795.83 -81.2714
internal_count=1058479 1058052 1057733 1057410 1005984 1365 1038 716 51426 1004619 1004296 51125 1003862 1003516 1003132 1001907 1001525 50812 49979 49638 1001189 49333 999197 998867 1992 994484 983010 11474 48993 1225 971069 963070 21551 941519 940163 939623 13227 938910 484024 833 4383 12441 483690 7677 476013 47513 39697 28096 2407 1480 454886
shrinkage=0.192407


Tree=17
num_leaves=52
num_cat=0
split_feature=114 89 23 48 196 64 38 114 108 109 109 150 147 184 90 88 22 54 150 24 114 66 47 182 114 35 21 193 176 1 62 47 61 76 103 113 193 18 35 88 38 131 210 223 33 216 103 150 224 231 171
split_gain=2.81944e+11 1.33119e+11 1.26997e+11 1.19457e+11 1.34417e+11 1.17464e+11 6.84931e+10 1.57909e+11 8.71828e+10 6.66222e+10 6.31161e+10 6.09667e+10 5.8922e+10 5.48929e+10 5.23367e+10 5.90582e+10 5.20105e+10 4.38641e+10 4.29391e+10 4.05141e+10 4.38125e+10 4.03313e+10 4.02927e+10 3.75424e+10 8.23982e+10 5.51047e+10 4.47605e+10 3.93296e+10 3.92395e+10 5.29611e+10 4.42638e+10 3.82496e+10 3.68051e+10 4.7515e+10 3.6729e+10 3.6536e+10 3.28441e+10 3.13892e+10 3.04816e+10 2.99218e+10 3.35673e+10 2.89074e+10 2.89257e+10 3.21679e+10 2.86967e+10 2.833e+10 2.81909e+10 2.67352e+10 2.65394e+10 2.56356e+10 2.50373e+10
threshold=117.50000000000001 25.500000000000004 39.500000000000007 1.0000000180025095e-35 6.5000000000000009 11.500000000000002 40.500000000000007 51.500000000000007 26.500000000000004 4.5000000000000009 10.500000000000002 20.500000000000004 17.500000000000004 40.500000000000007 9.5000000000000018 43.500000000000007 1.0000000180025095e-35 13.500000000000002 106.50000000000001 1.0000000180025095e-35 20.500000000000004 1.0000000180025095e-35 1.0000000180025095e-35 2.5000000000000004 14.500000000000002 1.0000000180025095e-35 3.5000000000000004 22.500000000000004 2.5000000000000004 1.0000000180025095e-35 5.5000000000000009 1.0000000180025095e-35 7.5000000000000009 1.0000000180025095e-35 4.5000000000000009 2.5000000000000004 10.500000000000002 1.0000000180025095e-35 1.5000000000000002 5.5000000000000009 1.0000000180025095e-35 1.0000000180025095e-35 1.0000000180025095e-35 0.62561440063252427 12.500000000000002 1.0000000180025095e-35 2.5000000000000004 79.500000000000014 22561.000000000004 0.12716214459034009 1.0000000180025095e-35
decision_type=2 2 2 2 2 2 2 2 2 2 2 2 2 2 2 2 2 2 2 2 2 2 2 2 2 2 2 2 2 2 2 2 2 2 2 2 2 2 2 2 2 2 2 2 2 2 2 2 2 2 2
left_child=1 2 3 6 5 9 7 8 10 13 12 39 14 19 15 16 17 18 21 20 36 23 -21 24 26 34 27 31 30 -30 44 37 33 -23 35 -25 46 41 -16 40 -7 42 45 -44 -27 -1 47 -5 -34 -20 -50
right_child=-2 -3 -4 4 -6 11 -8 -9 -10 -11 -12 -13 -14 -15 38 -17 -18 -19 49 22 -22 32 -24 25 -26 28 -28 -29 29 -31 -32 -33 48 -35 -36 -37 -38 -39 -40 -41 -42 -43 43 -45 -46 -47 -48 -49 50 -51 -52
leaf_value=-54.270066660573058 4941.0156606431019 3193.6393946564262 3881.8093633748567 76.242964329118905 4122.0498979225204 899.08763331348928 -2854.3950283557051 3232.3286229873806 3209.9393955104242 2620.5496518594291 1988.8324540739657 4367.9683820983519 1545.5105919946002 2655.1709104447041 -535.71547836577167 2081.6379974509223 2342.7664995923424 1750.6623961537857 312.13308131713143 530.08054980269605 2308.0119858121761 627.499601633726 2692.7438024782127 -141.15441442546665 2346.4681058253605 -635.42493611627344 2133.154054229924 2075.481295658215 -377.25719342340341 2321.3421907130137 -2780.5336542741538 424.14323771583355 -1492.9334896147891 3085.3213439884998 1723.7340380477171 1690.6319330266128 1987.3041411380214 738.17352740993715 -3142.5201896860617 -274.04147758459027 3498.8521522511419 132.15884794427384 120.79783007363579 2118.0744302601265 -2314.4739471221146 125.13255400245309 1489.9181666401857 1358.8741494573742 -276.21682417157024 2755.1685211806935 1685.7751771443195
leaf_count=788276 427 482 311 76821 324 463 316 551 308 408 575 302 881 324 363 491 342 512 314 4665 335 3305 342 50132 542 4753 355 329 1560 325 439 6891 456 319 400 406 341 1960 306 323 305 37760 31696 301 409 33991 533 606 960 322 321
internal_value=0 -10.1568 -17.7321 -23.679 1105.28 1028.44 -123.76 -118.966 -128.579 878.044 -133.924 10135.2 -140.138 816.071 -147.575 -141.462 -147.029 -151.392 -156.296 765.717 590.09 -161.706 3523.71 -176.972 -126.66 -953.822 -134.073 -138.497 -3487.1 459.36 -4815.21 -142.492 2573.4 4387.26 -581.501 -657.076 541.238 -160.583 -8986.91 6650.11 10045 -169.367 -207.215 725.6 -3994.74 -243.514 498.378 448.466 -1211.08 8055.31 1121.45
internal_count=1058479 1058052 1057570 1057259 86092 85768 971167 970851 970300 84375 969992 1393 969417 83967 968536 967867 967376 967034 966522 83643 78636 965886 5007 960525 902101 58424 901559 901204 7486 1885 5601 900875 5361 3624 50938 50538 78301 893984 669 1091 768 892024 854264 31997 5162 822267 77960 77427 1737 636 1281
shrinkage=0.192407


Tree=18
num_leaves=52
num_cat=0
split_feature=114 13 178 171 82 113 117 23 88 41 38 30 114 195 21 38 50 103 114 76 44 193 24 91 87 182 148 113 48 42 229 2 130 83 113 88 35 88 217 102 186 139 133 140 128 184 163 114 184 225 108
split_gain=1.83961e+11 1.29521e+11 1.03708e+11 1.0299e+11 9.53697e+10 1.09552e+11 1.06589e+11 8.70345e+10 7.13255e+10 6.46524e+10 1.04825e+11 6.30425e+10 1.33076e+11 6.42907e+10 6.17335e+10 5.98529e+10 5.81907e+10 5.22288e+10 4.75169e+10 4.72609e+10 4.3389e+10 4.39475e+10 4.11049e+10 3.93618e+10 3.73418e+10 3.75269e+10 4.63914e+10 3.98782e+10 3.78079e+10 3.67533e+10 3.42919e+10 3.25423e+10 3.16764e+10 3.13668e+10 3.65194e+10 3.12953e+10 3.09847e+10 3.02004e+10 2.96251e+10 2.8349e+10 2.70681e+10 2.60152e+10 5.26999e+10 9.31612e+10 2.44175e+10 2.44115e+10 2.42341e+10 2.41137e+10 2.35103e+10 2.30099e+10 2.23808e+10
threshold=117.50000000000001 20.500000000000004 4.5000000000000009 7.5000000000000009 2.5000000000000004 22.500000000000004 1.0000000180025095e-35 13.500000000000002 43.500000000000007 11.500000000000002 38.500000000000007 1.0000000180025095e-35 48.500000000000007 51.500000000000007 7.5000000000000009 1.0000000180025095e-35 5.5000000000000009 22.500000000000004 24.500000000000004 2.5000000000000004 26.500000000000004 24.500000000000004 8.5000000000000018 13.500000000000002 8.5000000000000018 2.5000000000000004 2.5000000000000004 1.0000000180025095e-35 12.500000000000002 2.5000000000000004 0.038029791626521529 5.5000000000000009 17.500000000000004 1.0000000180025095e-35 9.5000000000000018 11.500000000000002 2.5000000000000004 3.5000000000000004 0.08641351350224101 1.0000000180025095e-35 7.5000000000000009 1.0000000180025095e-35 1.0000000180025095e-35 1.0000000180025095e-35 1.0000000180025095e-35 1.5000000000000002 1.5000000000000002 20.500000000000004 8.5000000000000018 0.42211882584249272 1.0000000180025095e-35
decision_type=2 2 2 2 2 2 2 2 2 2 2 2 2 2 2 2 2 2 2 2 2 2 2 2 2 2 2 2 2 2 2 2 2 2 2 2 2 2 2 2 2 2 2 2 2 2 2 2 2 2 2
left_child=1 2 4 19 5 7 37 8 9 10 11 13 16 14 17 -11 23 18 20 29 21 22 24 33 25 26 32 28 31 44 -10 50 35 34 46 39 -29 49 -9 40 41 42 -1 -44 -4 -35 47 -13 -26 -6 -27
right_child=-2 -3 3 -5 6 -7 -8 38 30 15 -12 12 -14 -15 -16 -17 -18 -19 -20 -21 -22 -23 -24 -25 48 27 -28 36 -30 -31 -32 -33 -34 45 -36 -37 -38 -39 -40 -41 -42 -43 43 -45 -46 -47 -48 -49 -50 -51 -52
leaf_value=-41.049466406269239 3991.153574756936 3854.5204716604135 272.06291010031725 3819.0761844941094 971.92750948919434 -3433.347793277138 3739.8844447084948 934.74027481324526 3441.1471720115378 76.298942840047019 -3544.7828579416932 90.817756398934364 3926.4014113566009 2739.3380082701774 2516.812533846341 3219.6429904276265 2143.501490725936 2175.8869122152978 -2189.1499783726081 2802.8056146032395 2240.4650108111118 1810.4434084560216 1564.457636736161 -1915.4155936521659 466.78152308551967 -229.85156313528361 314.9176592135575 -414.3702948888249 1348.4071406226533 2273.3534639984805 680.32888845194361 1774.27020721997 1931.3768793913321 -95.874186303005871 2081.5195272474966 795.36366287009616 -2160.9766007718749 2300.9255676590269 3563.9363959382927 257.01641942752326 297.08063756573398 -382.79273950375682 672.74881760585765 -229.46229520333083 1959.3624675940848 1313.7740847722835 626.40214358408832 -1431.6060881143924 2245.7815411634842 -73.730380494605313 211.05125805230804
leaf_count=864271 427 322 8167 360 1407 346 445 320 313 457 311 46540 350 311 353 440 544 398 376 319 312 481 599 341 2691 46402 14848 890 608 379 356 314 305 657 351 1703 651 340 315 12553 9042 8005 10169 7263 330 1477 3188 388 306 1745 4693
internal_value=0 -8.18097 -14.2891 3265.24 -44.1859 -62.708 4868.11 -56.808 -63.9338 -70.5591 -77.8679 -72.3827 981.403 -129.83 -134.361 8413.81 854.148 -139.093 -143.716 2615.19 -139.428 -143.162 -147.829 748.375 -152.868 -163.628 -116.663 -977.537 -828.993 2185.05 10255.3 -921.73 -145.169 817.832 659.02 -148.575 -5990.27 3009.63 11643.6 -156.579 -177.424 -194.919 -178.625 1542.81 1755 4572.8 587.788 406.529 3371.37 2043.03 -984.13
internal_count=1058479 1058052 1057730 9555 1048175 1044238 3937 1043892 1043257 1042588 1041691 1041380 53836 987544 987233 897 53486 986880 986482 9195 986106 985794 985313 52942 984714 981717 928159 53558 52017 8876 669 51409 913311 52601 50467 913006 1541 3492 635 911303 898750 889708 881703 17432 8497 2134 50116 46928 2997 3152 51095
shrinkage=0.192407


Tree=19
num_leaves=52
num_cat=0
split_feature=65 41 175 13 20 196 22 76 113 182 36 41 228 61 224 119 155 59 12 14 166 44 178 48 182 35 62 36 154 1 41 87 113 167 33 177 166 182 222 169 223 69 182 169 223 147 50 1 181 65 184
split_gain=1.55792e+11 1.09796e+11 8.51956e+10 8.82946e+10 7.92166e+10 7.46823e+10 7.53123e+10 6.20649e+10 9.25032e+10 6.5393e+10 8.34054e+10 7.32391e+10 9.75824e+10 5.89696e+10 5.59142e+10 5.05103e+10 4.69201e+10 4.64043e+10 5.13537e+10 4.48847e+10 4.19839e+10 3.97001e+10 3.91378e+10 3.61101e+10 4.06596e+10 4.91975e+10 5.69436e+10 3.67298e+10 3.25387e+10 3.0829e+10 4.05196e+10 3.0815e+10 3.38396e+10 3.03106e+10 4.80357e+10 3.55553e+10 2.92844e+10 2.92094e+10 2.89671e+10 2.86207e+10 2.6367e+10 2.61642e+10 2.4818e+10 2.43986e+10 2.39226e+10 2.349e+10 2.31432e+10 2.38481e+10 2.22285e+10 2.21722e+10 3.2609e+10
threshold=30.500000000000004 24.500000000000004 23.500000000000004 20.500000000000004 15.500000000000002 1.0000000180025095e-35 2.5000000000000004 5.5000000000000009 22.500000000000004 48.500000000000007 17.500000000000004 11.500000000000002 0.032627374837615193 10.500000000000002 25100.500000000004 24.500000000000004 4.5000000000000009 1.0000000180025095e-35 8.5000000000000018 7.5000000000000009 14.500000000000002 1.0000000180025095e-35 1.0000000180025095e-35 4.5000000000000009 2.5000000000000004 1.0000000180025095e-35 10.500000000000002 1.0000000180025095e-35 14.500000000000002 6.5000000000000009 1.5000000000000002 1.0000000180025095e-35 1.0000000180025095e-35 1.5000000000000002 2.5000000000000004 8.5000000000000018 1.0000000180025095e-35 13.500000000000002 0.2717294778475508 1.5000000000000002 0.64614938064525196 13.500000000000002 9.5000000000000018 1.0000000180025095e-35 0.10044675239660299 10.500000000000002 1.0000000180025095e-35 1.5000000000000002 1.5000000000000002 1.5000000000000002 19.500000000000004
decision_type=2 2 2 2 2 2 2 2 2 2 2 2 2 2 2 2 2 2 2 2 2 2 2 2 2 2 2 2 2 2 2 2 2 2 2 2 2 2 2 2 2 2 2 2 2 2 2 2 2 2 2
left_child=1 2 3 4 5 6 7 8 9 10 11 15 -13 43 -15 17 -11 18 19 20 21 23 37 24 31 28 27 29 39 30 36 32 40 35 -35 41 49 38 -9 45 -1 -19 -24 -7 -45 46 47 -26 -43 50 -27
right_child=-2 -3 -4 -5 -6 13 -8 22 -10 16 -12 12 -14 14 -16 -17 -18 33 -20 -21 -22 -23 42 -25 25 26 -28 -29 -30 -31 -32 -33 -34 34 -36 -37 -38 -39 -40 -41 -42 48 -44 44 -46 -47 -48 -49 -50 -51 -52
leaf_value=-39.694113718530879 4331.1497664695853 3594.0260605858725 3174.806773119537 3231.1363833581877 2892.5877885483355 237.00369477291599 2950.3664446096864 307.13235965556549 -3039.7855582230632 -3549.8695811282869 3164.6359998099738 33.790127681439564 4531.8206303882362 517.33821581433062 3855.5237338298894 1814.4207276325728 -253.93495233997635 203.24035646041273 2484.3204636350815 2275.6616949370577 2210.191016107392 601.50583991724091 1023.8522608742546 278.72906709947853 -213.39521803173002 -817.30593131947194 1905.022294798347 -2779.6479577319355 1707.911634355801 -2292.3677672125068 1382.8529383062209 56.065735171784588 712.84705154111168 3225.2815594843614 263.20669179061611 -1574.8593789899617 794.20224784952859 -973.21371055966074 2071.5808936341982 463.61537194911017 310.87742907018969 485.65375041647343 3232.2945200344943 469.64925653728102 2794.4009954969697 604.05667764059456 474.04701892514828 1452.1699581371936 2254.0981750100054 -186.03596824334807 -2675.9981967066369
leaf_count=759037 307 314 312 312 349 3062 318 1187 373 330 306 428 306 341 408 560 310 19051 303 315 312 3781 397 14467 48274 4444 322 303 362 389 386 172819 2240 326 535 400 491 421 485 2931 8026 688 359 361 300 1469 1947 320 426 1890 379
internal_value=0 -6.3596 -11.9125 -16.7898 -21.7565 -26.7334 -44.0622 -48.7157 -61.3727 -55.7706 -49.5991 -54.4222 9928.59 4051 12144.8 -61.423 -10158 -66.5048 -96.9451 -100.796 -104.467 -108.002 4612.08 -119.986 -142.544 -914.432 -3138.82 -3646.23 -568.344 -3235.43 -2790.07 -90.1842 -175.903 1390 7201.61 1146.56 -3325 2383.64 4258.13 -630.635 -187.237 1331.82 10777.3 2421.63 7929.7 -801.98 -916.562 -1052.02 6041.57 -3870.31 -5007.91
internal_count=1058479 1058172 1057858 1057546 1057234 1056885 1052413 1052095 1049246 1048873 1048233 1047927 734 4472 749 1047193 640 1046633 1025207 1024904 1024589 1024277 2849 1020496 1006029 63907 8604 8282 55303 7979 7590 942122 769303 21426 861 20565 7204 2093 1672 54941 767063 20165 756 3723 661 52010 50541 48594 1114 6713 4823
shrinkage=0.192407


Tree=20
num_leaves=52
num_cat=0
split_feature=114 40 199 13 171 22 90 114 182 183 38 226 36 144 176 78 193 119 150 219 178 108 38 155 29 118 50 30 112 225 221 103 88 184 16 174 68 231 70 182 31 222 193 220 30 150 89 33 182 232 114
split_gain=1.04972e+11 9.90257e+10 8.03578e+10 6.39484e+10 5.85455e+10 5.66231e+10 5.37937e+10 6.95034e+10 3.85509e+11 2.72663e+11 1.67507e+11 2.36754e+11 7.83248e+10 6.50439e+10 5.07544e+10 5.03005e+10 4.31207e+10 4.0501e+10 3.82356e+10 4.30967e+10 4.85073e+10 3.91477e+10 4.52675e+10 6.03576e+10 3.71872e+10 3.44934e+10 3.42319e+10 4.1807e+10 3.36587e+10 3.20892e+10 2.94268e+10 3.40418e+10 3.39316e+10 3.71541e+10 2.96105e+10 7.98277e+10 3.01565e+10 3.27975e+10 3.10225e+10 3.06698e+10 2.80572e+10 2.72388e+10 2.55782e+10 2.58982e+10 2.94171e+10 2.44482e+10 2.42538e+10 2.4195e+10 2.34643e+10 2.47506e+10 2.34593e+10
threshold=117.50000000000001 4.5000000000000009 1.0000000180025095e-35 14.500000000000002 8.5000000000000018 2.5000000000000004 11.500000000000002 22.500000000000004 21.500000000000004 3.5000000000000004 6.5000000000000009 0.1610910569756282 17.500000000000004 57.500000000000007 32.500000000000007 13.500000000000002 34.500000000000007 22.500000000000004 30.500000000000004 0.12613701079166281 1.5000000000000002 21.500000000000004 16.500000000000004 3.5000000000000004 1.5000000000000002 1.0000000180025095e-35 5.5000000000000009 10.500000000000002 1.0000000180025095e-35 0.42804759876276005 0.87513934331721444 1.5000000000000002 11.500000000000002 20.500000000000004 1.0000000180025095e-35 1.0000000180025095e-35 1.0000000180025095e-35 0.16945556663934241 2.5000000000000004 4.5000000000000009 3.5000000000000004 0.23709995649321244 1.0000000180025095e-35 0.0056624872045504598 21.500000000000004 52.500000000000007 8.5000000000000018 14.500000000000002 1.0000000180025095e-35 0.042234393065571446 1.5000000000000002
decision_type=2 2 2 2 2 2 2 2 2 2 2 2 2 2 2 2 2 2 2 2 2 2 2 2 2 2 2 2 2 2 2 2 2 2 2 2 2 2 2 2 2 2 2 2 2 2 2 2 2 2 2
left_child=1 2 3 5 46 6 7 12 9 10 -9 -12 13 14 15 16 17 18 21 -20 -21 22 26 24 28 -19 30 -28 -24 -8 31 32 34 -34 36 48 39 -38 -39 40 42 -6 43 44 50 -22 -4 -41 -36 -50 -1
right_child=-2 -3 4 -5 41 -7 29 8 -10 -11 11 -13 -14 -15 -16 -17 -18 25 19 20 45 -23 23 -25 -26 -27 27 -29 -30 -31 -32 -33 33 -35 35 -37 37 38 -40 47 -42 -43 -44 -45 -46 -47 -48 -49 49 -51 -52
leaf_value=-1.7839956341149759 3014.9050029531172 3429.590780507584 335.07078355702185 2479.5352400808897 994.66239054644473 2601.9257638706104 -2860.5500996430915 846.20983963005801 -4988.9068442111729 -1510.0793607955436 9919.1254058693339 2681.1866110327078 3090.5269181117687 2791.3211293214622 2371.8552843491248 2006.1917810737082 2113.8531799715352 28.226321497783655 -7.3221589131806475 426.75048574173417 1018.6405194526926 1719.3410347575943 1969.5575011894086 -2859.8658943596834 -1730.0338189935671 2823.6327627053734 390.64059141623034 2823.7060067351972 -738.53614015512812 -224.74064546483407 -107.91142673375923 567.23817347939132 738.02111622782945 -1017.6375921616856 624.93969156335208 3207.689074973383 205.45334097218972 697.06483298181683 2993.251887006968 -182.30997450119568 297.4869787075454 3567.4195765910395 399.54865795535727 -70.439528586461577 1293.1670990632467 3060.7218121640844 2081.5080501101597 -1139.1174787330481 1190.1389259889013 -395.27701785541416 492.23695211819285
leaf_count=557534 427 311 12733 382 300 307 389 362 309 444 307 368 301 306 330 456 352 311 9919 7243 481 478 337 477 401 344 1507 316 342 305 127714 3777 3760 506 2855 355 5978 743 308 27612 10591 310 5404 261399 653 396 301 1014 429 2414 3581
internal_value=0 -6.16706 -11.416 -42.9247 2399.7 -47.6616 -51.6593 -45.7999 6179.47 12883.5 21759.6 31063 -56.5072 -61.1753 -65.4657 -69.4025 -74.0104 -77.7608 -82.7201 1360.45 3068.73 -108.231 -112.473 -5499.7 -1360.3 7780.97 -104.235 4224.78 3148.95 -8850.49 -111.999 -47.511 -60.2949 2753.05 -73.921 2130.16 -89.1722 1973.74 7124.42 -105.882 -71.1601 11972 -91.8333 -106.07 14.9245 10091.2 1951.38 -1123.74 1223.18 -810.355 7.11583
internal_count=1058479 1058052 1057741 1044097 13644 1043715 1043408 1042714 1790 1481 1037 675 1040924 1040623 1040317 1039987 1039531 1039179 1038524 18039 8120 1020485 1020007 1557 1080 655 1018450 1823 679 694 1016627 888913 885136 4266 880870 6053 874817 7029 1051 867788 839162 610 828571 823167 561768 877 13034 28626 5698 2843 561115
shrinkage=0.192407


Tree=21
num_leaves=52
num_cat=0
split_feature=58 65 194 114 46 109 1 30 114 41 218 62 114 37 108 23 184 165 54 21 47 37 69 3 65 147 182 114 89 33 199 114 61 33 182 146 62 130 148 88 137 206 127 64 10 232 218 92 112 113 229
split_gain=1.00035e+11 9.08756e+10 8.62771e+10 6.42513e+10 6.6232e+10 5.97539e+10 5.94265e+10 5.14873e+10 1.25588e+11 3.06591e+11 1.48213e+11 6.201e+10 8.49065e+10 6.02224e+10 5.05178e+10 1.64343e+11 6.07672e+10 4.63939e+10 4.35219e+10 4.12869e+10 3.33187e+10 3.34639e+10 3.1148e+10 3.34904e+10 3.04143e+10 2.94844e+10 3.0857e+10 9.24229e+10 3.62781e+10 2.9297e+10 2.79628e+10 3.14004e+10 2.60809e+10 2.58479e+10 3.19519e+10 2.99082e+10 2.5535e+10 2.46489e+10 2.47451e+10 2.42228e+10 2.37021e+10 2.37776e+10 2.49071e+10 2.34094e+10 2.26394e+10 2.25851e+10 2.18037e+10 2.42933e+10 2.16484e+10 2.88128e+10 2.06082e+10
threshold=65.500000000000014 30.500000000000004 39.500000000000007 117.50000000000001 23.500000000000004 10.500000000000002 13.500000000000002 3.5000000000000004 19.500000000000004 1.0000000180025095e-35 0.025958221529453356 5.5000000000000009 14.500000000000002 4.5000000000000009 1.0000000180025095e-35 1.0000000180025095e-35 5.5000000000000009 1.0000000180025095e-35 4.5000000000000009 8.5000000000000018 19.500000000000004 18.500000000000004 2.5000000000000004 1.5000000000000002 1.0000000180025095e-35 23.500000000000004 1.5000000000000002 12.500000000000002 6.5000000000000009 1.0000000180025095e-35 1.0000000180025095e-35 14.500000000000002 17.500000000000004 3.5000000000000004 17.500000000000004 1.0000000180025095e-35 7.5000000000000009 3.5000000000000004 2.5000000000000004 22.500000000000004 3.5000000000000004 1.0000000180025095e-35 1.5000000000000002 16.500000000000004 1.0000000180025095e-35 0.053505427873138618 0.0072166338499175609 5.5000000000000009 12.500000000000002 2.5000000000000004 0.032340495745909602
decision_type=2 2 2 2 2 2 2 2 2 2 2 2 2 2 2 2 2 2 2 2 2 2 2 2 2 2 2 2 2 2 2 2 2 2 2 2 2 2 2 2 2 2 2 2 2 2 2 2 2 2 2
left_child=1 2 3 4 5 6 7 11 18 10 13 14 -13 -10 19 17 -17 48 22 20 21 25 33 29 -7 26 27 28 37 -24 31 32 -28 34 -9 36 43 38 39 40 41 44 -43 -35 -1 -20 -31 -48 49 -16 -23
right_child=-2 -3 -4 -5 -6 24 -8 8 9 -11 -12 12 -14 -15 15 16 -18 -19 45 -21 -22 50 23 -25 -26 -27 30 -29 -30 46 -32 -33 -34 35 -36 -37 -38 -39 -40 -41 -42 42 -44 -45 -46 -47 47 -49 -50 -51 -52
